{"learner":{"attributes":{"scikit_learn":"{\"_estimator_type\": \"classifier\"}"},"feature_names":["Elo-diff","Elo_diff_fatigue","Player_surface_elo_diff","Player_court_elo_diff","Player_climate_elo_diff","Rank-diff","Elo_RankDiff","Atp_points_diff","H2H_Wins_vs_Opp","H2H_Losses_vs_Opp","H2H_Total_prior","H2H_win_rate","log_H2H_Total_prior","RecentWinPct_5","RecentWinPct_10","WinStreak","LossStreak","Surface_Elo_RecentWin","DaysSinceLastMatch","MatchesLast7","GamesLast7","log_GamesLast7","Fatigue_Streak","Surface_Clay","Surface_Grass","Surface_Hard","Court_Outdoors","Temp_bin_low","Temp_bin_medium","Hum_bin_low","Hum_bin_medium"],"feature_types":["float","float","float","float","float","float","float","float","int","int","int","float","float","float","float","float","float","float","float","float","float","float","float","i","i","i","i","i","i","i","i"],"gradient_booster":{"model":{"gbtree_model_param":{"num_parallel_tree":"1","num_trees":"1200"},"iteration_indptr":[0,1,2,3,4,5,6,7,8,9,10,11,12,13,14,15,16,17,18,19,20,21,22,23,24,25,26,27,28,29,30,31,32,33,34,35,36,37,38,39,40,41,42,43,44,45,46,47,48,49,50,51,52,53,54,55,56,57,58,59,60,61,62,63,64,65,66,67,68,69,70,71,72,73,74,75,76,77,78,79,80,81,82,83,84,85,86,87,88,89,90,91,92,93,94,95,96,97,98,99,100,101,102,103,104,105,106,107,108,109,110,111,112,113,114,115,116,117,118,119,120,121,122,123,124,125,126,127,128,129,130,131,132,133,134,135,136,137,138,139,140,141,142,143,144,145,146,147,148,149,150,151,152,153,154,155,156,157,158,159,160,161,162,163,164,165,166,167,168,169,170,171,172,173,174,175,176,177,178,179,180,181,182,183,184,185,186,187,188,189,190,191,192,193,194,195,196,197,198,199,200,201,202,203,204,205,206,207,208,209,210,211,212,213,214,215,216,217,218,219,220,221,222,223,224,225,226,227,228,229,230,231,232,233,234,235,236,237,238,239,240,241,242,243,244,245,246,247,248,249,250,251,252,253,254,255,256,257,258,259,260,261,262,263,264,265,266,267,268,269,270,271,272,273,274,275,276,277,278,279,280,281,282,283,284,285,286,287,288,289,290,291,292,293,294,295,296,297,298,299,300,301,302,303,304,305,306,307,308,309,310,311,312,313,314,315,316,317,318,319,320,321,322,323,324,325,326,327,328,329,330,331,332,333,334,335,336,337,338,339,340,341,342,343,344,345,346,347,348,349,350,351,352,353,354,355,356,357,358,359,360,361,362,363,364,365,366,367,368,369,370,371,372,373,374,375,376,377,378,379,380,381,382,383,384,385,386,387,388,389,390,391,392,393,394,395,396,397,398,399,400,401,402,403,404,405,406,407,408,409,410,411,412,413,414,415,416,417,418,419,420,421,422,423,424,425,426,427,428,429,430,431,432,433,434,435,436,437,438,439,440,441,442,443,444,445,446,447,448,449,450,451,452,453,454,455,456,457,458,459,460,461,462,463,464,465,466,467,468,469,470,471,472,473,474,475,476,477,478,479,480,481,482,483,484,485,486,487,488,489,490,491,492,493,494,495,496,497,498,499,500,501,502,503,504,505,506,507,508,509,510,511,512,513,514,515,516,517,518,519,520,521,522,523,524,525,526,527,528,529,530,531,532,533,534,535,536,537,538,539,540,541,542,543,544,545,546,547,548,549,550,551,552,553,554,555,556,557,558,559,560,561,562,563,564,565,566,567,568,569,570,571,572,573,574,575,576,577,578,579,580,581,582,583,584,585,586,587,588,589,590,591,592,593,594,595,596,597,598,599,600,601,602,603,604,605,606,607,608,609,610,611,612,613,614,615,616,617,618,619,620,621,622,623,624,625,626,627,628,629,630,631,632,633,634,635,636,637,638,639,640,641,642,643,644,645,646,647,648,649,650,651,652,653,654,655,656,657,658,659,660,661,662,663,664,665,666,667,668,669,670,671,672,673,674,675,676,677,678,679,680,681,682,683,684,685,686,687,688,689,690,691,692,693,694,695,696,697,698,699,700,701,702,703,704,705,706,707,708,709,710,711,712,713,714,715,716,717,718,719,720,721,722,723,724,725,726,727,728,729,730,731,732,733,734,735,736,737,738,739,740,741,742,743,744,745,746,747,748,749,750,751,752,753,754,755,756,757,758,759,760,761,762,763,764,765,766,767,768,769,770,771,772,773,774,775,776,777,778,779,780,781,782,783,784,785,786,787,788,789,790,791,792,793,794,795,796,797,798,799,800,801,802,803,804,805,806,807,808,809,810,811,812,813,814,815,816,817,818,819,820,821,822,823,824,825,826,827,828,829,830,831,832,833,834,835,836,837,838,839,840,841,842,843,844,845,846,847,848,849,850,851,852,853,854,855,856,857,858,859,860,861,862,863,864,865,866,867,868,869,870,871,872,873,874,875,876,877,878,879,880,881,882,883,884,885,886,887,888,889,890,891,892,893,894,895,896,897,898,899,900,901,902,903,904,905,906,907,908,909,910,911,912,913,914,915,916,917,918,919,920,921,922,923,924,925,926,927,928,929,930,931,932,933,934,935,936,937,938,939,940,941,942,943,944,945,946,947,948,949,950,951,952,953,954,955,956,957,958,959,960,961,962,963,964,965,966,967,968,969,970,971,972,973,974,975,976,977,978,979,980,981,982,983,984,985,986,987,988,989,990,991,992,993,994,995,996,997,998,999,1000,1001,1002,1003,1004,1005,1006,1007,1008,1009,1010,1011,1012,1013,1014,1015,1016,1017,1018,1019,1020,1021,1022,1023,1024,1025,1026,1027,1028,1029,1030,1031,1032,1033,1034,1035,1036,1037,1038,1039,1040,1041,1042,1043,1044,1045,1046,1047,1048,1049,1050,1051,1052,1053,1054,1055,1056,1057,1058,1059,1060,1061,1062,1063,1064,1065,1066,1067,1068,1069,1070,1071,1072,1073,1074,1075,1076,1077,1078,1079,1080,1081,1082,1083,1084,1085,1086,1087,1088,1089,1090,1091,1092,1093,1094,1095,1096,1097,1098,1099,1100,1101,1102,1103,1104,1105,1106,1107,1108,1109,1110,1111,1112,1113,1114,1115,1116,1117,1118,1119,1120,1121,1122,1123,1124,1125,1126,1127,1128,1129,1130,1131,1132,1133,1134,1135,1136,1137,1138,1139,1140,1141,1142,1143,1144,1145,1146,1147,1148,1149,1150,1151,1152,1153,1154,1155,1156,1157,1158,1159,1160,1161,1162,1163,1164,1165,1166,1167,1168,1169,1170,1171,1172,1173,1174,1175,1176,1177,1178,1179,1180,1181,1182,1183,1184,1185,1186,1187,1188,1189,1190,1191,1192,1193,1194,1195,1196,1197,1198,1199,1200],"tree_info":[0,0,0,0,0,0,0,0,0,0,0,0,0,0,0,0,0,0,0,0,0,0,0,0,0,0,0,0,0,0,0,0,0,0,0,0,0,0,0,0,0,0,0,0,0,0,0,0,0,0,0,0,0,0,0,0,0,0,0,0,0,0,0,0,0,0,0,0,0,0,0,0,0,0,0,0,0,0,0,0,0,0,0,0,0,0,0,0,0,0,0,0,0,0,0,0,0,0,0,0,0,0,0,0,0,0,0,0,0,0,0,0,0,0,0,0,0,0,0,0,0,0,0,0,0,0,0,0,0,0,0,0,0,0,0,0,0,0,0,0,0,0,0,0,0,0,0,0,0,0,0,0,0,0,0,0,0,0,0,0,0,0,0,0,0,0,0,0,0,0,0,0,0,0,0,0,0,0,0,0,0,0,0,0,0,0,0,0,0,0,0,0,0,0,0,0,0,0,0,0,0,0,0,0,0,0,0,0,0,0,0,0,0,0,0,0,0,0,0,0,0,0,0,0,0,0,0,0,0,0,0,0,0,0,0,0,0,0,0,0,0,0,0,0,0,0,0,0,0,0,0,0,0,0,0,0,0,0,0,0,0,0,0,0,0,0,0,0,0,0,0,0,0,0,0,0,0,0,0,0,0,0,0,0,0,0,0,0,0,0,0,0,0,0,0,0,0,0,0,0,0,0,0,0,0,0,0,0,0,0,0,0,0,0,0,0,0,0,0,0,0,0,0,0,0,0,0,0,0,0,0,0,0,0,0,0,0,0,0,0,0,0,0,0,0,0,0,0,0,0,0,0,0,0,0,0,0,0,0,0,0,0,0,0,0,0,0,0,0,0,0,0,0,0,0,0,0,0,0,0,0,0,0,0,0,0,0,0,0,0,0,0,0,0,0,0,0,0,0,0,0,0,0,0,0,0,0,0,0,0,0,0,0,0,0,0,0,0,0,0,0,0,0,0,0,0,0,0,0,0,0,0,0,0,0,0,0,0,0,0,0,0,0,0,0,0,0,0,0,0,0,0,0,0,0,0,0,0,0,0,0,0,0,0,0,0,0,0,0,0,0,0,0,0,0,0,0,0,0,0,0,0,0,0,0,0,0,0,0,0,0,0,0,0,0,0,0,0,0,0,0,0,0,0,0,0,0,0,0,0,0,0,0,0,0,0,0,0,0,0,0,0,0,0,0,0,0,0,0,0,0,0,0,0,0,0,0,0,0,0,0,0,0,0,0,0,0,0,0,0,0,0,0,0,0,0,0,0,0,0,0,0,0,0,0,0,0,0,0,0,0,0,0,0,0,0,0,0,0,0,0,0,0,0,0,0,0,0,0,0,0,0,0,0,0,0,0,0,0,0,0,0,0,0,0,0,0,0,0,0,0,0,0,0,0,0,0,0,0,0,0,0,0,0,0,0,0,0,0,0,0,0,0,0,0,0,0,0,0,0,0,0,0,0,0,0,0,0,0,0,0,0,0,0,0,0,0,0,0,0,0,0,0,0,0,0,0,0,0,0,0,0,0,0,0,0,0,0,0,0,0,0,0,0,0,0,0,0,0,0,0,0,0,0,0,0,0,0,0,0,0,0,0,0,0,0,0,0,0,0,0,0,0,0,0,0,0,0,0,0,0,0,0,0,0,0,0,0,0,0,0,0,0,0,0,0,0,0,0,0,0,0,0,0,0,0,0,0,0,0,0,0,0,0,0,0,0,0,0,0,0,0,0,0,0,0,0,0,0,0,0,0,0,0,0,0,0,0,0,0,0,0,0,0,0,0,0,0,0,0,0,0,0,0,0,0,0,0,0,0,0,0,0,0,0,0,0,0,0,0,0,0,0,0,0,0,0,0,0,0,0,0,0,0,0,0,0,0,0,0,0,0,0,0,0,0,0,0,0,0,0,0,0,0,0,0,0,0,0,0,0,0,0,0,0,0,0,0,0,0,0,0,0,0,0,0,0,0,0,0,0,0,0,0,0,0,0,0,0,0,0,0,0,0,0,0,0,0,0,0,0,0,0,0,0,0,0,0,0,0,0,0,0,0,0,0,0,0,0,0,0,0,0,0,0,0,0,0,0,0,0,0,0,0,0,0,0,0,0,0,0,0,0,0,0,0,0,0,0,0,0,0,0,0,0,0,0,0,0,0,0,0,0,0,0,0,0,0,0,0,0,0,0,0,0,0,0,0,0,0,0,0,0,0,0,0,0,0,0,0,0,0,0,0,0,0,0,0,0,0,0,0,0,0,0,0,0,0,0,0,0,0,0,0,0,0,0,0,0,0,0,0,0,0,0,0,0,0,0,0,0,0,0,0,0,0,0,0,0,0,0,0,0,0,0,0,0,0,0,0,0,0,0,0,0,0,0,0,0,0,0,0,0,0,0,0,0,0,0,0,0,0,0,0,0,0,0,0,0,0,0,0,0,0,0,0,0,0,0,0,0,0,0,0,0,0,0,0,0,0,0,0,0,0,0,0,0,0,0,0,0,0,0,0,0,0,0,0,0,0,0,0,0,0,0,0,0,0,0,0,0,0,0,0,0,0,0,0,0,0,0,0,0,0,0,0,0,0,0,0,0,0,0,0,0,0,0,0,0,0,0,0,0,0,0,0,0,0,0,0,0,0,0,0,0,0,0,0,0,0,0,0,0,0,0,0,0,0,0,0,0,0,0,0,0,0,0,0,0,0,0,0,0,0,0,0,0,0,0,0],"trees":[{"base_weights":[-8.142434E-4,-6.9525766E-1,5.4763407E-1,-1.1461042E0,-4.1884512E-1,2.5530154E-1,1.0846035E0,-1.3321589E0,1.8282497E-1,-5.246246E-1,1.3798003E-1,6.1529195E-1,7.0211984E-2,1.2701814E0,-1.5195782E-1,-5.2057832E-2,-8.898497E-2,-9.729585E-2,6.5655276E-2,-1.2924192E-2,-6.534023E-2,9.894296E-2,-6.043611E-2,3.600542E-2,-6.543603E-3,-1.2197645E-2,8.14491E-3,4.8736814E-2,8.734407E-2,-9.822027E-2,5.923426E-2],"categories":[],"categories_nodes":[],"categories_segments":[],"categories_sizes":[],"default_left":[0,0,0,0,0,1,0,0,0,0,0,0,1,0,0,0,0,0,0,0,0,0,0,0,0,0,0,0,0,0,0],"id":0,"left_children":[1,3,5,7,9,11,13,15,17,19,21,23,25,27,29,-1,-1,-1,-1,-1,-1,-1,-1,-1,-1,-1,-1,-1,-1,-1,-1],"loss_changes":[9.777995E3,1.409228E3,2.2501514E3,1.0652031E3,4.1453113E2,6.1901227E2,1.1610327E3,4.820913E2,1.2945493E3,1.2283868E3,2.804141E3,2.473031E2,1.7910353E2,6.1030615E2,1.6203174E3,0E0,0E0,0E0,0E0,0E0,0E0,0E0,0E0,0E0,0E0,0E0,0E0,0E0,0E0,0E0,0E0],"parents":[2147483647,0,0,1,1,2,2,3,3,4,4,5,5,6,6,7,7,8,8,9,9,10,10,11,11,12,12,13,13,14,14],"right_children":[2,4,6,8,10,12,14,16,18,20,22,24,26,28,30,-1,-1,-1,-1,-1,-1,-1,-1,-1,-1,-1,-1,-1,-1,-1,-1],"split_conditions":[-2.9585274E1,-1.8196986E2,1.6057526E2,5.9090906E-1,6E-1,-3.0375278E3,5.833333E-1,1E0,1E0,1E0,1E0,6.363636E-1,-2.041271E1,1E0,1E0,-5.2057832E-2,-8.898497E-2,-9.729585E-2,6.5655276E-2,-1.2924192E-2,-6.534023E-2,9.894296E-2,-6.043611E-2,3.600542E-2,-6.543603E-3,-1.2197645E-2,8.14491E-3,4.8736814E-2,8.734407E-2,-9.822027E-2,5.923426E-2],"split_indices":[0,2,2,11,11,6,11,9,9,9,8,11,17,8,9,0,0,0,0,0,0,0,0,0,0,0,0,0,0,0,0],"split_type":[0,0,0,0,0,0,0,0,0,0,0,0,0,0,0,0,0,0,0,0,0,0,0,0,0,0,0,0,0,0,0],"sum_hessian":[2.5663E4,1.132375E4,1.433925E4,4.29775E3,7.026E3,9.2895E3,5.04975E3,3.77E3,5.2775E2,5.90475E3,1.12125E3,3.15025E3,6.13925E3,4.39075E3,6.59E2,2.29475E3,1.47525E3,1.8175E2,3.46E2,4.41075E3,1.494E3,4.7275E2,6.485E2,2.7625E3,3.8775E2,1.3965E3,4.74275E3,2.72025E3,1.6705E3,2.7875E2,3.8025E2],"tree_param":{"num_deleted":"0","num_feature":"31","num_nodes":"31","size_leaf_vector":"1"}},{"base_weights":[5.8971776E-4,-5.3530836E-1,6.459582E-1,-1.0376483E0,-2.5363314E-1,3.556235E-1,1.0401318E0,-1.2030687E0,2.7723646E-1,6.8033457E-1,-3.246879E-1,1.1148325E0,2.9101682E-1,1.2176622E0,-1.7911954E-1,-4.6761815E-2,-8.077289E-2,-9.371381E-2,8.5673206E-2,-1.1556889E-2,9.810508E-2,1.6588252E-5,-2.4045419E-2,3.1490587E-2,9.494262E-2,2.0634288E-2,-2.595746E-3,4.6685915E-2,8.3710164E-2,9.487953E-2,-6.312495E-2],"categories":[],"categories_nodes":[],"categories_segments":[],"categories_sizes":[],"default_left":[0,0,0,0,0,0,0,0,0,0,0,0,1,0,0,0,0,0,0,0,0,0,0,0,0,0,0,0,0,0,0],"id":1,"left_children":[1,3,5,7,9,11,13,15,17,19,21,23,25,27,29,-1,-1,-1,-1,-1,-1,-1,-1,-1,-1,-1,-1,-1,-1,-1,-1],"loss_changes":[8.878584E3,1.9830813E3,1.3308481E3,1.0973828E3,5.9787683E2,3.275735E2,1.0698442E3,4.8648828E2,1.767748E3,7.470246E2,4.2456506E2,1.9328265E2,2.5860858E2,5.506738E2,1.4333503E3,0E0,0E0,0E0,0E0,0E0,0E0,0E0,0E0,0E0,0E0,0E0,0E0,0E0,0E0,0E0,0E0],"parents":[2147483647,0,0,1,1,2,2,3,3,4,4,5,5,6,6,7,7,8,8,9,9,10,10,11,11,12,12,13,13,14,14],"right_children":[2,4,6,8,10,12,14,16,18,20,22,24,26,28,30,-1,-1,-1,-1,-1,-1,-1,-1,-1,-1,-1,-1,-1,-1,-1,-1],"split_conditions":[1.8167564E1,-1.6053473E2,1.6057526E2,6.875E-1,1E0,1E0,5.833333E-1,1E0,1E0,1E0,3E0,1E0,-2E0,1E0,1E0,-4.6761815E-2,-8.077289E-2,-9.371381E-2,8.5673206E-2,-1.1556889E-2,9.810508E-2,1.6588252E-5,-2.4045419E-2,3.1490587E-2,9.494262E-2,2.0634288E-2,-2.595746E-3,4.6685915E-2,8.3710164E-2,9.487953E-2,-6.312495E-2],"split_indices":[1,2,2,11,18,18,11,9,9,16,5,16,5,8,8,0,0,0,0,0,0,0,0,0,0,0,0,0,0,0,0],"split_type":[0,0,0,0,0,0,0,0,0,0,0,0,0,0,0,0,0,0,0,0,0,0,0,0,0,0,0,0,0,0,0],"sum_hessian":[2.5661617E4,1.4020246E4,1.164137E4,5.032143E3,8.988104E3,6.709298E3,4.9320723E3,4.470259E3,5.618841E2,6.3232513E2,8.355778E3,5.196726E2,6.1896255E3,4.305285E3,6.26787E2,2.7201787E3,1.7500802E3,2.2429247E2,3.375916E2,3.718913E2,2.6043384E2,2.71387E3,5.641908E3,3.267057E2,1.9296693E2,4.56816E3,1.6214653E3,2.6639177E3,1.6413674E3,2.135626E2,4.1322437E2],"tree_param":{"num_deleted":"0","num_feature":"31","num_nodes":"31","size_leaf_vector":"1"}},{"base_weights":[4.5266557E-3,-6.2271553E-1,5.151416E-1,-1.0105027E0,-3.458047E-1,1.8051991E-1,9.038342E-1,-1.1790777E0,1.9319938E-1,5.941318E-1,-4.1087857E-1,9.168093E-1,1.1874042E-1,1.0631359E0,-1.5939288E-1,-7.7923946E-2,-5.1394142E-2,9.1943555E-2,-5.2686322E-2,9.300371E-2,-1.6294137E-2,-2.5403986E-2,4.2648497E-3,9.174546E-2,1.8475188E-2,-5.189643E-3,1.5446171E-2,3.952822E-2,7.879303E-2,9.401371E-2,-6.330261E-2],"categories":[],"categories_nodes":[],"categories_segments":[],"categories_sizes":[],"default_left":[0,0,0,0,0,0,0,0,0,0,0,0,1,0,0,0,0,0,0,0,0,0,0,0,0,0,0,0,0,0,0],"id":2,"left_children":[1,3,5,7,9,11,13,15,17,19,21,23,25,27,29,-1,-1,-1,-1,-1,-1,-1,-1,-1,-1,-1,-1,-1,-1,-1,-1],"loss_changes":[8.201795E3,1.2321226E3,1.8351514E3,9.7210986E2,4.117464E2,3.447087E2,1.1068262E3,2.3252393E2,1.2245377E3,5.1162274E2,3.031598E2,2.912766E2,2.96878E2,7.8722705E2,1.9419047E3,0E0,0E0,0E0,0E0,0E0,0E0,0E0,0E0,0E0,0E0,0E0,0E0,0E0,0E0,0E0,0E0],"parents":[2147483647,0,0,1,1,2,2,3,3,4,4,5,5,6,6,7,7,8,8,9,9,10,10,11,11,12,12,13,13,14,14],"right_children":[2,4,6,8,10,12,14,16,18,20,22,24,26,28,30,-1,-1,-1,-1,-1,-1,-1,-1,-1,-1,-1,-1,-1,-1,-1,-1],"split_conditions":[-2.5515642E1,-1.899335E2,1.389785E2,5.833333E-1,1E0,1E0,5.9090906E-1,-2.205E3,1E0,1E0,6E-1,1E0,9.84184E0,1E0,1E0,-7.7923946E-2,-5.1394142E-2,9.1943555E-2,-5.2686322E-2,9.300371E-2,-1.6294137E-2,-2.5403986E-2,4.2648497E-3,9.174546E-2,1.8475188E-2,-5.189643E-3,1.5446171E-2,3.952822E-2,7.879303E-2,9.401371E-2,-6.330261E-2],"split_indices":[0,0,0,11,18,18,11,7,8,15,11,15,17,8,8,0,0,0,0,0,0,0,0,0,0,0,0,0,0,0,0],"split_type":[0,0,0,0,0,0,0,0,0,0,0,0,0,0,0,0,0,0,0,0,0,0,0,0,0,0,0,0,0,0,0],"sum_hessian":[2.5598287E4,1.1486686E4,1.4111602E4,4.7796445E3,6.707041E3,7.587326E3,6.5242754E3,4.1926597E3,5.8698486E2,4.3154575E2,6.275495E3,5.8186206E2,7.005464E3,5.6742114E3,8.500636E2,1.1812612E3,3.0113987E3,2.5204575E2,3.3493915E2,1.7952232E2,2.5202344E2,5.2475737E3,1.0279216E3,2.1285464E2,3.6900745E2,3.2289788E3,3.776485E3,3.7131528E3,1.9610587E3,2.977322E2,5.523314E2],"tree_param":{"num_deleted":"0","num_feature":"31","num_nodes":"31","size_leaf_vector":"1"}},{"base_weights":[-1.917789E-3,-4.7183615E-1,6.1185205E-1,-8.6489785E-1,-1.5401825E-1,3.7690786E-1,1.0290405E0,-1.2149776E0,-7.0873016E-1,6.789861E-1,-2.1910127E-1,1.0614088E0,3.2113403E-1,8.349329E-1,1.2829832E0,-7.4715756E-2,-5.4444946E-2,1.00488085E-2,-3.753623E-2,8.7138824E-2,-5.929591E-3,-2.3291022E-2,-2.4790824E-3,8.477109E-2,3.415316E-2,5.1402645E-3,2.5153548E-2,2.8110305E-2,4.7528397E-2,5.8300387E-2,7.669618E-2],"categories":[],"categories_nodes":[],"categories_segments":[],"categories_sizes":[],"default_left":[0,0,0,0,0,0,0,0,0,0,1,0,1,0,0,0,0,0,0,0,0,0,0,0,0,0,0,0,0,0,0],"id":3,"left_children":[1,3,5,7,9,11,13,15,17,19,21,23,25,27,29,-1,-1,-1,-1,-1,-1,-1,-1,-1,-1,-1,-1,-1,-1,-1,-1],"loss_changes":[7.3714785E3,1.8075305E3,1.0841938E3,3.4924658E2,4.3495627E2,2.6913623E2,1.9109277E2,6.164868E1,1.7220923E2,4.9464224E2,3.1072696E2,1.2169794E2,2.606726E2,6.8947754E1,4.124341E1,0E0,0E0,0E0,0E0,0E0,0E0,0E0,0E0,0E0,0E0,0E0,0E0,0E0,0E0,0E0,0E0],"parents":[2147483647,0,0,1,1,2,2,3,3,4,4,5,5,6,6,7,7,8,8,9,9,10,10,11,11,12,12,13,13,14,14],"right_children":[2,4,6,8,10,12,14,16,18,20,22,24,26,28,30,-1,-1,-1,-1,-1,-1,-1,-1,-1,-1,-1,-1,-1,-1,-1,-1],"split_conditions":[3.3438316E1,-1.3896886E2,1.9215248E2,-3.140626E2,1E0,1E0,2.9320676E2,-4.67029E2,1E0,1.3E1,-2.221243E1,1.3E1,1.34E2,6.42E2,4.6697067E2,-7.4715756E-2,-5.4444946E-2,1.00488085E-2,-3.753623E-2,8.7138824E-2,-5.929591E-3,-2.3291022E-2,-2.4790824E-3,8.477109E-2,3.415316E-2,5.1402645E-3,2.5153548E-2,2.8110305E-2,4.7528397E-2,5.8300387E-2,7.669618E-2],"split_indices":[0,0,2,0,18,18,3,0,18,22,17,22,7,7,0,0,0,0,0,0,0,0,0,0,0,0,0,0,0,0,0],"split_type":[0,0,0,0,0,0,0,0,0,0,0,0,0,0,0,0,0,0,0,0,0,0,0,0,0,0,0,0,0,0,0],"sum_hessian":[2.554803E4,1.4470416E4,1.1077612E4,6.4654014E3,8.005015E3,7.092916E3,3.984696E3,1.983798E3,4.4816035E3,5.76582E2,7.428433E3,5.274675E2,6.565448E3,2.2707915E3,1.7139045E3,5.998121E2,1.3839858E3,1.9681323E2,4.28479E3,2.4457443E2,3.3200754E2,3.0215435E3,4.4068896E3,1.9052501E2,3.3694254E2,2.9880684E3,3.5773801E3,6.851142E2,1.5856772E3,1.1885128E3,5.253917E2],"tree_param":{"num_deleted":"0","num_feature":"31","num_nodes":"31","size_leaf_vector":"1"}},{"base_weights":[-9.484512E-4,-4.3717715E-1,5.8686566E-1,-8.2719797E-1,-1.4492206E-1,3.2299095E-1,9.1945153E-1,-1.1899923E0,-6.8318915E-1,6.443582E-1,-2.0596068E-1,5.705063E-1,1.5501642E-1,7.3980737E-1,1.2174447E0,4.0393076E-3,-6.054849E-2,7.1683414E-3,-3.601777E-2,8.599844E-2,-5.405351E-3,-2.1319881E-2,-1.692145E-3,6.242288E-2,2.5627557E-2,1.5429978E-2,-4.3294136E-3,2.6281089E-2,4.224932E-2,4.8530187E-2,6.75151E-2],"categories":[],"categories_nodes":[],"categories_segments":[],"categories_sizes":[],"default_left":[0,0,0,0,0,1,0,0,0,0,1,0,0,0,0,0,0,0,0,0,0,0,0,0,0,0,0,0,0,0,0],"id":4,"left_children":[1,3,5,7,9,11,13,15,17,19,21,23,25,27,29,-1,-1,-1,-1,-1,-1,-1,-1,-1,-1,-1,-1,-1,-1,-1,-1],"loss_changes":[6.543011E3,1.6688518E3,9.5232446E2,3.2347803E2,4.0429724E2,2.5180322E2,2.52573E2,4.7933838E1,1.3888696E2,4.8878986E2,2.951226E2,9.294147E1,1.3457031E2,6.5480225E1,5.223169E1,0E0,0E0,0E0,0E0,0E0,0E0,0E0,0E0,0E0,0E0,0E0,0E0,0E0,0E0,0E0,0E0],"parents":[2147483647,0,0,1,1,2,2,3,3,4,4,5,5,6,6,7,7,8,8,9,9,10,10,11,11,12,12,13,13,14,14],"right_children":[2,4,6,8,10,12,14,16,18,20,22,24,26,28,30,-1,-1,-1,-1,-1,-1,-1,-1,-1,-1,-1,-1,-1,-1,-1,-1],"split_conditions":[3.2206985E1,-1.499416E2,1.6057526E2,-2.989654E2,1E0,-4.662276E3,2.9320676E2,1E0,1E0,1E0,-1.8758371E1,1E0,7E0,6.42E2,2.104E3,4.0393076E-3,-6.054849E-2,7.1683414E-3,-3.601777E-2,8.599844E-2,-5.405351E-3,-2.1319881E-2,-1.692145E-3,6.242288E-2,2.5627557E-2,1.5429978E-2,-4.3294136E-3,2.6281089E-2,4.224932E-2,4.8530187E-2,6.75151E-2],"split_indices":[1,1,2,2,18,6,3,18,18,15,17,18,18,7,7,0,0,0,0,0,0,0,0,0,0,0,0,0,0,0,0],"split_type":[0,0,0,0,0,0,0,0,0,0,0,0,0,0,0,0,0,0,0,0,0,0,0,0,0,0,0,0,0,0,0],"sum_hessian":[2.5506691E4,1.4642012E4,1.0864681E4,6.2678857E3,8.374125E3,6.0637993E3,4.8008813E3,1.7705118E3,4.497374E3,5.975739E2,7.776552E3,2.4463926E3,3.617407E3,3.0062952E3,1.7945862E3,2.844341E1,1.7420684E3,1.9279315E2,4.304581E3,2.4337944E2,3.5419446E2,3.4061785E3,4.370373E3,1.8443726E2,2.2619553E3,2.2109678E3,1.4064393E3,1.0002767E3,2.0060184E3,6.4272375E2,1.1518623E3],"tree_param":{"num_deleted":"0","num_feature":"31","num_nodes":"31","size_leaf_vector":"1"}},{"base_weights":[-1.3699614E-3,-4.6477973E-1,5.151291E-1,-8.286933E-1,-1.797548E-1,2.4135737E-1,8.716855E-1,-9.860441E-1,2.1722268E-1,9.8459795E-2,-3.5344052E-1,3.728624E-1,-5.3482357E-2,1.031378E0,-2.1391043E-1,-3.6091503E-2,-7.361266E-2,-8.683451E-2,6.259088E-2,3.2381754E-2,1.5298259E-3,-2.2653671E-2,7.575097E-3,2.425648E-2,-7.680461E-3,-7.1139983E-3,6.658E-3,3.8874324E-2,7.404407E-2,-9.3856804E-2,4.9564313E-2],"categories":[],"categories_nodes":[],"categories_segments":[],"categories_sizes":[],"default_left":[1,0,0,0,0,1,0,0,0,0,0,0,0,0,0,0,0,0,0,0,0,0,0,0,0,0,0,0,0,0,0],"id":5,"left_children":[1,3,5,7,9,11,13,15,17,19,21,23,25,27,29,-1,-1,-1,-1,-1,-1,-1,-1,-1,-1,-1,-1,-1,-1,-1,-1],"loss_changes":[6.093309E3,1.3909863E3,1.1740366E3,9.708484E2,3.641327E2,2.644551E2,9.073296E2,6.525322E2,1.5765311E3,1.0785161E2,2.3370966E2,2.7910736E2,3.5014023E1,5.141494E2,1.3611279E3,0E0,0E0,0E0,0E0,0E0,0E0,0E0,0E0,0E0,0E0,0E0,0E0,0E0,0E0,0E0,0E0],"parents":[2147483647,0,0,1,1,2,2,3,3,4,4,5,5,6,6,7,7,8,8,9,9,10,10,11,11,12,12,13,13,14,14],"right_children":[2,4,6,8,10,12,14,16,18,20,22,24,26,28,30,-1,-1,-1,-1,-1,-1,-1,-1,-1,-1,-1,-1,-1,-1,-1,-1],"split_conditions":[1.1811055E0,-1.499416E2,1.5651767E2,5.588235E-1,-3E0,8E0,5.588235E-1,1E0,1E0,-1.46E2,5.9090906E-1,5.9090906E-1,9.282096E1,1E0,1E0,-3.6091503E-2,-7.361266E-2,-8.683451E-2,6.259088E-2,3.2381754E-2,1.5298259E-3,-2.2653671E-2,7.575097E-3,2.425648E-2,-7.680461E-3,-7.1139983E-3,6.658E-3,3.8874324E-2,7.404407E-2,-9.3856804E-2,4.9564313E-2],"split_indices":[17,1,1,11,5,5,11,9,9,5,11,11,2,8,9,0,0,0,0,0,0,0,0,0,0,0,0,0,0,0,0],"split_type":[0,0,0,0,0,0,0,0,0,0,0,0,0,0,0,0,0,0,0,0,0,0,0,0,0,0,0,0,0,0,0],"sum_hessian":[2.544768E4,1.3413555E4,1.2034125E4,5.8871216E3,7.5264336E3,6.812219E3,5.2219053E3,5.117596E3,7.695253E2,2.8933599E3,4.6330737E3,4.7103257E3,2.1018936E3,4.5525596E3,6.6934576E2,3.323941E3,1.7936553E3,2.651947E2,5.043306E2,3.133581E2,2.5800017E3,3.870146E3,7.629276E2,3.8829011E3,8.274248E2,1.4254436E3,6.764498E2,2.9181694E3,1.6343899E3,2.8009598E2,3.8924976E2],"tree_param":{"num_deleted":"0","num_feature":"31","num_nodes":"31","size_leaf_vector":"1"}},{"base_weights":[3.044212E-3,4.663224E-1,-4.701277E-1,1.6806707E-1,7.655715E-1,-7.584595E-1,-1.6374896E-1,9.821063E-1,1.0131314E-1,9.1924316E-1,-2.3604746E-1,-9.066531E-1,2.1478853E-1,4.9561587E-1,-2.1311146E-1,8.239928E-2,2.1667998E-2,3.9714664E-2,3.5855824E-3,3.9358996E-2,6.699042E-2,-9.2281304E-2,5.0502706E-2,-3.2094173E-2,-7.066893E-2,-8.515035E-2,6.041723E-2,8.2849465E-2,-5.0390903E-3,-2.097745E-2,-4.087202E-3],"categories":[],"categories_nodes":[],"categories_segments":[],"categories_sizes":[],"default_left":[0,0,0,0,0,0,0,0,0,1,0,0,0,0,1,0,0,0,0,0,0,0,0,0,0,0,0,0,0,0,0],"id":6,"left_children":[1,3,5,7,9,11,13,15,17,19,21,23,25,27,29,-1,-1,-1,-1,-1,-1,-1,-1,-1,-1,-1,-1,-1,-1,-1,-1],"loss_changes":[5.5594985E3,1.1430186E3,1.107645E3,3.48511E2,9.8550195E2,9.330757E2,1.9870078E2,1.7388687E2,1.2154724E2,3.025244E2,1.7233741E3,7.478281E2,1.6449147E3,2.95705E2,1.5351758E2,0E0,0E0,0E0,0E0,0E0,0E0,0E0,0E0,0E0,0E0,0E0,0E0,0E0,0E0,0E0,0E0],"parents":[2147483647,0,0,1,1,2,2,3,3,4,4,5,5,6,6,7,7,8,8,9,9,10,10,11,11,12,12,13,13,14,14],"right_children":[2,4,6,8,10,12,14,16,18,20,22,24,26,28,30,-1,-1,-1,-1,-1,-1,-1,-1,-1,-1,-1,-1,-1,-1,-1,-1],"split_conditions":[2E0,1.2597814E2,-1.2868227E2,1E0,5.9090906E-1,5.9090906E-1,1E0,1E0,-2.4E2,2.104E3,1E0,1E0,1E0,1E0,-7.5E2,8.239928E-2,2.1667998E-2,3.9714664E-2,3.5855824E-3,3.9358996E-2,6.699042E-2,-9.2281304E-2,5.0502706E-2,-3.2094173E-2,-7.066893E-2,-8.515035E-2,6.041723E-2,8.2849465E-2,-5.0390903E-3,-2.097745E-2,-4.087202E-3],"split_indices":[5,0,1,18,11,11,18,15,5,7,9,9,9,15,7,0,0,0,0,0,0,0,0,0,0,0,0,0,0,0,0],"split_type":[0,0,0,0,0,0,0,0,0,0,0,0,0,0,0,0,0,0,0,0,0,0,0,0,0,0,0,0,0,0,0],"sum_hessian":[2.5351494E4,1.2809812E4,1.2541683E4,6.4196357E3,6.390176E3,6.457166E3,6.0845166E3,4.8122446E2,5.938411E3,5.5406255E3,8.4955005E2,5.6042656E3,8.5290015E2,4.2049405E2,5.6640225E3,2.1280135E2,2.684231E2,2.3784488E2,5.7005664E3,4.2276743E3,1.3129513E3,3.6969406E2,4.7985602E2,3.6885093E3,1.9157563E3,2.8981622E2,5.630839E2,1.397103E2,2.8078375E2,2.1980942E3,3.4659282E3],"tree_param":{"num_deleted":"0","num_feature":"31","num_nodes":"31","size_leaf_vector":"1"}},{"base_weights":[3.0833795E-3,-5.267645E-1,3.812076E-1,-6.501699E-1,2.0119725E-1,1.4871646E-1,7.741791E-1,-9.7285795E-1,-3.6929077E-1,7.124713E-1,1.5972081E-1,8.00558E-1,9.30778E-2,9.2713636E-1,-2.1788041E-1,-5.7575244E-2,-3.358793E-2,1.9392043E-2,-2.1134492E-2,4.221613E-2,-1.41575625E-2,3.862048E-2,6.3117943E-3,1.4758508E-2,8.025059E-2,-3.6177125E-3,1.6004343E-2,3.7901353E-2,6.263744E-2,-5.4939436E-3,-3.6708206E-2],"categories":[],"categories_nodes":[],"categories_segments":[],"categories_sizes":[],"default_left":[0,0,0,0,0,0,0,1,0,0,0,0,1,0,0,0,0,0,0,0,0,0,0,0,0,0,0,0,0,0,0],"id":7,"left_children":[1,3,5,7,9,11,13,15,17,19,21,23,25,27,29,-1,-1,-1,-1,-1,-1,-1,-1,-1,-1,-1,-1,-1,-1,-1,-1],"loss_changes":[5.0690806E3,9.472532E2,1.3482747E3,8.147632E2,3.1809605E1,3.3620578E2,8.336726E2,2.213335E2,1.9592438E2,1.6118778E1,2.8611126E1,2.9392126E2,3.2155676E2,2.568772E2,4.060277E1,0E0,0E0,0E0,0E0,0E0,0E0,0E0,0E0,0E0,0E0,0E0,0E0,0E0,0E0,0E0,0E0],"parents":[2147483647,0,0,1,1,2,2,3,3,4,4,5,5,6,6,7,7,8,8,9,9,10,10,11,11,12,12,13,13,14,14],"right_children":[2,4,6,8,10,12,14,16,18,20,22,24,26,28,30,-1,-1,-1,-1,-1,-1,-1,-1,-1,-1,-1,-1,-1,-1,-1,-1],"split_conditions":[-4.681221E1,6E-1,1.4311081E2,-1.5748859E2,-3.858E3,1E0,5.9090906E-1,-1.075E3,1E0,8.3E1,1E0,1E0,1.34E2,2.9320676E2,1.609438E0,-5.7575244E-2,-3.358793E-2,1.9392043E-2,-2.1134492E-2,4.221613E-2,-1.41575625E-2,3.862048E-2,6.3117943E-3,1.4758508E-2,8.025059E-2,-3.6177125E-3,1.6004343E-2,3.7901353E-2,6.263744E-2,-5.4939436E-3,-3.6708206E-2],"split_indices":[1,11,2,2,7,18,11,7,18,5,18,16,7,3,12,0,0,0,0,0,0,0,0,0,0,0,0,0,0,0,0],"split_type":[0,0,0,0,0,0,0,0,0,0,0,0,0,0,0,0,0,0,0,0,0,0,0,0,0,0,0,0,0,0,0],"sum_hessian":[2.52914E4,1.0531653E4,1.4759747E4,9.005668E3,1.5259852E3,9.277882E3,5.481865E3,4.185026E3,4.820642E3,1.0825399E2,1.4177312E3,7.2423846E2,8.553644E3,4.7499404E3,7.3192505E2,2.6175432E3,1.5674828E3,3.15405E2,4.505237E3,9.6354004E1,1.1899985E1,6.759483E1,1.3501364E3,4.49073E2,2.7516544E2,4.949603E3,3.60404E3,3.1374365E3,1.6125038E3,6.10477E2,1.21448044E2],"tree_param":{"num_deleted":"0","num_feature":"31","num_nodes":"31","size_leaf_vector":"1"}},{"base_weights":[6.7393784E-4,-4.0618438E-1,4.543797E-1,-7.4843913E-1,-1.7720298E-1,2.5318584E-1,8.268501E-1,-1.0541805E0,-6.058181E-1,5.651999E-1,-2.2873986E-1,3.7447524E-1,-3.338918E-3,7.0100105E-1,1.129999E0,2.9309103E-3,-5.3804386E-2,1.1225488E-2,-3.2068323E-2,8.026191E-2,-1.2745643E-2,-1.9324346E-2,6.9694704E-4,4.6843182E-2,1.6350497E-2,2.2223596E-3,-1.8353831E-2,2.2728197E-2,3.9292987E-2,4.9682196E-2,6.39643E-2],"categories":[],"categories_nodes":[],"categories_segments":[],"categories_sizes":[],"default_left":[1,0,0,0,0,1,0,0,0,0,1,0,0,0,0,0,0,0,0,0,0,0,0,0,0,0,0,0,0,0,0],"id":8,"left_children":[1,3,5,7,9,11,13,15,17,19,21,23,25,27,29,-1,-1,-1,-1,-1,-1,-1,-1,-1,-1,-1,-1,-1,-1,-1,-1],"loss_changes":[4.659388E3,1.0421572E3,8.9314185E2,2.2917139E2,3.0593347E2,2.41353E2,1.5544067E2,4.1599487E1,1.08448975E2,4.4512894E2,2.858613E2,1.3891797E2,4.347237E1,6.0184326E1,1.8224854E1,0E0,0E0,0E0,0E0,0E0,0E0,0E0,0E0,0E0,0E0,0E0,0E0,0E0,0E0,0E0,0E0],"parents":[2147483647,0,0,1,1,2,2,3,3,4,4,5,5,6,6,7,7,8,8,9,9,10,10,11,11,12,12,13,13,14,14],"right_children":[2,4,6,8,10,12,14,16,18,20,22,24,26,28,30,-1,-1,-1,-1,-1,-1,-1,-1,-1,-1,-1,-1,-1,-1,-1,-1],"split_conditions":[1.1811055E0,-1.6406332E2,1.9160857E2,-3.3367426E2,1E0,3E0,3.6399918E2,1E0,1E0,1E0,-1.34E2,1E0,1E2,6.42E2,4.6195178E2,2.9309103E-3,-5.3804386E-2,1.1225488E-2,-3.2068323E-2,8.026191E-2,-1.2745643E-2,-1.9324346E-2,6.9694704E-4,4.6843182E-2,1.6350497E-2,2.2223596E-3,-1.8353831E-2,2.2728197E-2,3.9292987E-2,4.9682196E-2,6.39643E-2],"split_indices":[17,1,1,1,18,5,1,18,18,15,7,18,5,7,1,0,0,0,0,0,0,0,0,0,0,0,0,0,0,0,0],"split_type":[0,0,0,0,0,0,0,0,0,0,0,0,0,0,0,0,0,0,0,0,0,0,0,0,0,0,0,0,0,0,0],"sum_hessian":[2.5231256E4,1.3302558E4,1.1928697E4,5.3276406E3,7.9749175E3,7.7507266E3,4.1779707E3,1.6842981E3,3.6433425E3,5.1431366E2,7.4606035E3,5.2612207E3,2.4895059E3,2.9642754E3,1.2136951E3,3.2268154E1,1.65203E3,1.4836993E2,3.4949727E3,2.2469658E2,2.8961707E2,4.519967E3,2.940637E3,4.020285E2,4.8591924E3,2.204061E3,2.8544485E2,7.677174E2,2.196558E3,6.546774E2,5.5901764E2],"tree_param":{"num_deleted":"0","num_feature":"31","num_nodes":"31","size_leaf_vector":"1"}},{"base_weights":[1.449197E-3,-3.570931E-1,4.7144267E-1,-7.133328E-1,-1.3907963E-1,2.9299715E-1,8.113595E-1,-1.0316328E0,-5.5891055E-1,-2.9964011E-2,-4.3094853E-1,5.4083145E-1,1.8287861E-1,6.957528E-1,1.1244398E0,-5.7549465E-2,-4.1142948E-2,-3.3974398E-2,-1.76044E-2,2.5002629E-2,-3.1178517E-3,-1.8326024E-2,-4.9540147E-2,4.6102803E-2,2.3454575E-2,-2.3445168E-3,1.3347924E-2,2.2084903E-2,3.93705E-2,4.9518116E-2,6.529048E-2],"categories":[],"categories_nodes":[],"categories_segments":[],"categories_sizes":[],"default_left":[0,0,0,0,0,1,0,1,1,0,0,1,1,0,0,0,0,0,0,0,0,0,0,0,0,0,0,0,0,0,0],"id":9,"left_children":[1,3,5,7,9,11,13,15,17,19,21,23,25,27,29,-1,-1,-1,-1,-1,-1,-1,-1,-1,-1,-1,-1,-1,-1,-1,-1],"loss_changes":[4.233366E3,1.1061831E3,6.5812427E2,2.62813E2,2.8163477E2,1.9420905E2,1.3125269E2,3.894214E1,8.9800415E1,1.1076491E2,8.486041E1,5.7667664E1,9.569838E1,6.204297E1,1.7624146E1,0E0,0E0,0E0,0E0,0E0,0E0,0E0,0E0,0E0,0E0,0E0,0E0,0E0,0E0,0E0,0E0],"parents":[2147483647,0,0,1,1,2,2,3,3,4,4,5,5,6,6,7,7,8,8,9,9,10,10,11,11,12,12,13,13,14,14],"right_children":[2,4,6,8,10,12,14,16,18,20,22,24,26,28,30,-1,-1,-1,-1,-1,-1,-1,-1,-1,-1,-1,-1,-1,-1,-1,-1],"split_conditions":[3.3438316E1,-1.4310875E2,1.9568251E2,-2.9316693E2,4.7E1,-5.4E1,3.7928683E2,-2.104E3,-6.42E2,-9.4E1,7.1428573E-1,-2.18E2,2.6304948E0,6.42E2,4.6408527E2,-5.7549465E-2,-4.1142948E-2,-3.3974398E-2,-1.76044E-2,2.5002629E-2,-3.1178517E-3,-1.8326024E-2,-4.9540147E-2,4.6102803E-2,2.3454575E-2,-2.3445168E-3,1.3347924E-2,2.2084903E-2,3.93705E-2,4.9518116E-2,6.529048E-2],"split_indices":[0,2,2,3,5,5,0,7,7,5,14,5,17,7,2,0,0,0,0,0,0,0,0,0,0,0,0,0,0,0,0],"split_type":[0,0,0,0,0,0,0,0,0,0,0,0,0,0,0,0,0,0,0,0,0,0,0,0,0,0,0,0,0,0,0],"sum_hessian":[2.51119E4,1.4245484E4,1.0866415E4,5.4037686E3,8.841716E3,7.1319653E3,3.73445E3,1.7557367E3,3.6480317E3,6.439977E3,2.401739E3,2.1877412E3,4.944224E3,2.739357E3,9.950931E2,1.1024302E3,6.533065E2,2.2969827E3,1.351049E3,3.665869E2,6.07339E3,2.161451E3,2.4028793E2,3.3688464E2,1.8508564E3,1.324828E3,3.6193962E3,7.342772E2,2.0050797E3,5.9102905E2,4.0406406E2],"tree_param":{"num_deleted":"0","num_feature":"31","num_nodes":"31","size_leaf_vector":"1"}},{"base_weights":[-2.9590414E-3,-4.7063312E-1,3.3024526E-1,-7.6436836E-1,-2.722881E-1,1.0056795E-1,6.622738E-1,-1.0810641E0,-6.530185E-1,4.3566564E-1,-3.1518322E-1,6.8988353E-1,5.0749876E-2,5.437919E-1,9.937339E-1,8.7513095E-3,-5.4921E-2,-3.730507E-2,-1.9400328E-2,-1.935017E-2,7.917864E-2,-2.1403851E-2,-3.882048E-3,1.0786614E-2,7.6634035E-2,-5.9943493E-3,1.0702413E-2,5.5681515E-2,2.5165176E-2,4.3891136E-2,5.987781E-2],"categories":[],"categories_nodes":[],"categories_segments":[],"categories_sizes":[],"default_left":[0,0,0,0,0,0,0,0,1,0,1,0,1,0,0,0,0,0,0,0,0,0,0,0,0,0,0,0,0,0,0],"id":10,"left_children":[1,3,5,7,9,11,13,15,17,19,21,23,25,27,29,-1,-1,-1,-1,-1,-1,-1,-1,-1,-1,-1,-1,-1,-1,-1,-1],"loss_changes":[3.8950977E3,6.047388E2,1.1126804E3,1.4401074E2,1.8943088E2,2.5323083E2,2.3148682E2,2.463733E1,7.520642E1,3.4037302E2,1.5702832E2,2.6688367E2,2.221222E2,9.871582E1,3.1510986E1,0E0,0E0,0E0,0E0,0E0,0E0,0E0,0E0,0E0,0E0,0E0,0E0,0E0,0E0,0E0,0E0],"parents":[2147483647,0,0,1,1,2,2,3,3,4,4,5,5,6,6,7,7,8,8,9,9,10,10,11,11,12,12,13,13,14,14],"right_children":[2,4,6,8,10,12,14,16,18,20,22,24,26,28,30,-1,-1,-1,-1,-1,-1,-1,-1,-1,-1,-1,-1,-1,-1,-1,-1],"split_conditions":[-3.5204014E1,-1.9519035E2,1.389785E2,-3.7928683E2,1E0,1E0,3.359061E2,1E0,-6.42E2,1E0,-1.1E2,1E0,-1.34E2,1E0,4.6697067E2,8.7513095E-3,-5.4921E-2,-3.730507E-2,-1.9400328E-2,-1.935017E-2,7.917864E-2,-2.1403851E-2,-3.882048E-3,1.0786614E-2,7.6634035E-2,-5.9943493E-3,1.0702413E-2,5.5681515E-2,2.5165176E-2,4.3891136E-2,5.987781E-2],"split_indices":[2,1,0,0,18,18,0,18,7,16,7,16,7,18,0,0,0,0,0,0,0,0,0,0,0,0,0,0,0,0,0],"split_type":[0,0,0,0,0,0,0,0,0,0,0,0,0,0,0,0,0,0,0,0,0,0,0,0,0,0,0,0,0,0,0],"sum_hessian":[2.4985574E4,1.0394479E4,1.4591096E4,4.1837954E3,6.2106836E3,8.628936E3,5.96216E3,1.0767931E3,3.1070022E3,3.5206036E2,5.858623E3,6.6742944E2,7.961506E3,4.40211E3,1.5600504E3,1.3978104E1,1.062815E3,2.2923738E3,8.146283E2,2.069634E2,1.4509697E2,3.96825E3,1.8903732E3,4.3122437E2,2.3620505E2,3.8936235E3,4.0678826E3,2.830752E2,4.1190347E3,1.01172174E3,5.483286E2],"tree_param":{"num_deleted":"0","num_feature":"31","num_nodes":"31","size_leaf_vector":"1"}},{"base_weights":[4.2946415E-4,-3.284196E-1,4.3553147E-1,-6.448301E-1,-1.1366167E-1,5.5342394E-1,-1.9082679E-1,-7.8642505E-1,2.8477108E-1,-4.410198E-1,-4.0088583E-2,6.9632757E-1,-1.1566905E-1,-9.603193E-2,1.0092807E0,-2.6710514E-2,-6.3598074E-2,-7.892672E-2,6.156192E-2,-3.0049553E-2,3.10717E-3,-4.7584297E-3,9.422124E-3,2.1584412E-2,8.274709E-2,-1.0563554E-1,2.7424712E-2,-5.3954176E-3,8.8822804E-2],"categories":[],"categories_nodes":[],"categories_segments":[],"categories_sizes":[],"default_left":[1,0,0,0,1,0,0,0,0,0,0,0,0,0,0,0,0,0,0,0,0,0,0,0,0,0,0,0,0],"id":11,"left_children":[1,3,5,7,9,11,13,15,17,19,21,23,25,-1,27,-1,-1,-1,-1,-1,-1,-1,-1,-1,-1,-1,-1,-1,-1],"loss_changes":[3.5584832E3,9.620508E2,7.910995E2,7.5480884E2,2.0323041E2,8.620769E2,3.537672E3,6.050664E2,1.3507039E3,1.2490088E2,8.6934906E1,1.8801436E3,2.114938E3,0E0,8.6382983E2,0E0,0E0,0E0,0E0,0E0,0E0,0E0,0E0,0E0,0E0,0E0,0E0,0E0,0E0],"parents":[2147483647,0,0,1,1,2,2,3,3,4,4,5,5,6,6,7,7,8,8,9,9,10,10,11,11,12,12,14,14],"right_children":[2,4,6,8,10,12,14,16,18,20,22,24,26,-1,28,-1,-1,-1,-1,-1,-1,-1,-1,-1,-1,-1,-1,-1,-1],"split_conditions":[9.84184E0,-1.499416E2,5.25E-1,5.588235E-1,-7.087281E1,1E0,1E0,1E0,1E0,4.5833334E-1,5.7342285E1,1E0,5.5555556E-2,-9.603193E-2,1E0,-2.6710514E-2,-6.3598074E-2,-7.892672E-2,6.156192E-2,-3.0049553E-2,3.10717E-3,-4.7584297E-3,9.422124E-3,2.1584412E-2,8.274709E-2,-1.0563554E-1,2.7424712E-2,-5.3954176E-3,8.8822804E-2],"split_indices":[17,1,11,11,17,9,9,9,9,11,1,10,11,0,11,0,0,0,0,0,0,0,0,0,0,0,0,0,0],"split_type":[0,0,0,0,0,0,0,0,0,0,0,0,0,0,0,0,0,0,0,0,0,0,0,0,0,0,0,0,0],"sum_hessian":[2.486001E4,1.4159379E4,1.070063E4,5.7205747E3,8.438805E3,9.006229E3,1.6944011E3,4.9651685E3,7.554066E2,1.5437352E3,6.895069E3,7.421174E3,1.5850546E3,6.9283844E2,1.0015626E3,3.2747744E3,1.6903937E3,2.532971E2,5.0210953E2,1.1707454E3,3.7298984E2,5.558684E3,1.3363851E3,5.8214375E3,1.5997366E3,3.9290186E2,1.1921527E3,4.0945932E2,5.9210333E2],"tree_param":{"num_deleted":"0","num_feature":"31","num_nodes":"29","size_leaf_vector":"1"}},{"base_weights":[7.497829E-4,3.7420794E-1,-3.5309273E-1,1.7744745E-1,6.7667276E-1,-6.549514E-1,-1.6556911E-1,8.899446E-1,1.255203E-1,5.8482546E-1,1.0001055E0,-8.70615E-1,-5.101803E-1,4.8773593E-1,-2.1060799E-1,1.7085599E-2,7.476162E-2,3.0587196E-2,3.576868E-3,1.8093077E-2,3.299122E-2,2.8604304E-2,5.3551268E-2,-5.5503834E-2,-3.99795E-2,-2.9911181E-2,-1.3585189E-2,-7.1327984E-3,7.9140805E-2,-1.8988645E-2,-2.678682E-3],"categories":[],"categories_nodes":[],"categories_segments":[],"categories_sizes":[],"default_left":[1,1,1,0,0,1,0,0,0,0,0,0,1,0,1,0,0,0,0,0,0,0,0,0,0,0,0,0,0,0,0],"id":12,"left_children":[1,3,5,7,9,11,13,15,17,19,21,23,25,27,29,-1,-1,-1,-1,-1,-1,-1,-1,-1,-1,-1,-1,-1,-1,-1,-1],"loss_changes":[3.276382E3,7.172008E2,7.200272E2,2.699933E2,1.3809106E2,1.4989331E2,2.3174878E2,1.6184653E2,1.7883774E2,6.0801514E1,2.8455933E1,2.855835E1,6.062262E1,3.5214185E2,1.9527475E2,0E0,0E0,0E0,0E0,0E0,0E0,0E0,0E0,0E0,0E0,0E0,0E0,0E0,0E0,0E0,0E0],"parents":[2147483647,0,0,1,1,2,2,3,3,4,4,5,5,6,6,7,7,8,8,9,9,10,10,11,11,12,12,13,13,14,14],"right_children":[2,4,6,8,10,12,14,16,18,20,22,24,26,28,30,-1,-1,-1,-1,-1,-1,-1,-1,-1,-1,-1,-1,-1,-1,-1,-1],"split_conditions":[-2E0,7.553807E1,-5.8866432E1,1E0,2.569933E2,-1.4264014E2,1E0,1E0,-1.55E2,6.42E2,1.42E3,-5.073E3,-5.96E2,1E0,-5.4E2,1.7085599E-2,7.476162E-2,3.0587196E-2,3.576868E-3,1.8093077E-2,3.299122E-2,2.8604304E-2,5.3551268E-2,-5.5503834E-2,-3.99795E-2,-2.9911181E-2,-1.3585189E-2,-7.1327984E-3,7.9140805E-2,-1.8988645E-2,-2.678682E-3],"split_indices":[5,17,17,18,17,17,18,16,5,7,7,7,7,16,7,0,0,0,0,0,0,0,0,0,0,0,0,0,0,0,0],"split_type":[0,0,0,0,0,0,0,0,0,0,0,0,0,0,0,0,0,0,0,0,0,0,0,0,0,0,0,0,0,0,0],"sum_hessian":[2.4783754E4,1.2057659E4,1.2726094E4,7.3103604E3,4.7472983E3,4.87146E3,7.8546343E3,4.9097882E2,6.819382E3,3.7085168E3,1.0387815E3,1.946309E3,2.9251511E3,5.0326276E2,7.3513716E3,2.6182327E2,2.2915555E2,6.7611456E2,6.143267E3,9.41121E2,2.767396E3,1.5429774E2,8.844838E2,4.2817105E2,1.518138E3,2.1305935E3,7.9455756E2,3.2210037E2,1.8116238E2,3.5352756E3,3.8160957E3],"tree_param":{"num_deleted":"0","num_feature":"31","num_nodes":"31","size_leaf_vector":"1"}},{"base_weights":[3.189088E-4,3.6170056E-1,-3.3806956E-1,4.6365762E-1,-2.1988977E-1,-6.8247455E-1,-1.7469428E-1,2.0038313E-1,1.1355351E0,8.667557E-2,-1.3040382E0,-7.776603E-1,3.5164443E-1,-3.61582E-1,-1.1632124E-2,1.7778037E-2,-1.0120952E-1,7.913898E-2,2.0608095E-2,-9.588171E-2,4.7064956E-2,-3.0653587E-2,-6.08307E-2,-7.4734114E-2,8.137567E-2,-2.6022365E-2,1.565287E-2,-3.710523E-3,1.2335779E-2],"categories":[],"categories_nodes":[],"categories_segments":[],"categories_sizes":[],"default_left":[0,0,0,0,0,0,1,0,0,0,0,0,0,0,0,0,0,0,0,0,0,0,0,0,0,0,0,0,0],"id":13,"left_children":[1,3,5,7,9,11,13,15,17,-1,19,21,23,25,27,-1,-1,-1,-1,-1,-1,-1,-1,-1,-1,-1,-1,-1,-1],"loss_changes":[3.0126992E3,7.0697144E2,7.151903E2,1.7920647E3,3.7814248E3,4.0415393E2,2.6312314E2,2.5200344E3,9.1957153E2,0E0,1.5903928E3,2.668921E2,8.3246405E2,4.3207697E2,7.4725685E1,0E0,0E0,0E0,0E0,0E0,0E0,0E0,0E0,0E0,0E0,0E0,0E0,0E0,0E0],"parents":[2147483647,0,0,1,1,2,2,3,3,4,4,5,5,6,6,7,7,8,8,10,10,11,11,12,12,13,13,14,14],"right_children":[2,4,6,8,10,12,14,16,18,-1,20,22,24,26,28,-1,-1,-1,-1,-1,-1,-1,-1,-1,-1,-1,-1,-1,-1],"split_conditions":[-2E0,5.9090906E-1,-9.588735E3,1E0,1E0,7.037037E-1,-2.307558E1,1E0,2.5E-1,8.667557E-2,2E0,1E0,1E0,5.9090906E-1,5.6896244E1,1.7778037E-2,-1.0120952E-1,7.913898E-2,2.0608095E-2,-9.588171E-2,4.7064956E-2,-3.0653587E-2,-6.08307E-2,-7.4734114E-2,8.137567E-2,-2.6022365E-2,1.565287E-2,-3.710523E-3,1.2335779E-2],"split_indices":[5,11,6,8,8,11,17,9,11,0,9,9,9,11,17,0,0,0,0,0,0,0,0,0,0,0,0,0,0],"split_type":[0,0,0,0,0,0,0,0,0,0,0,0,0,0,0,0,0,0,0,0,0,0,0,0,0,0,0,0,0],"sum_hessian":[2.4626203E4,1.1908492E4,1.2717712E4,1.0133245E4,1.7752468E3,4.086539E3,8.631173E3,7.2851904E3,2.8480544E3,6.325112E2,1.1427356E3,3.7433208E3,3.432183E2,4.018647E3,4.6125254E3,6.8141104E3,4.7108002E2,1.7561749E3,1.0918796E3,8.980851E2,2.4465051E2,2.731382E3,1.0119388E3,1.3987193E2,2.0334637E2,3.2537412E3,7.649059E2,3.7162957E3,8.962298E2],"tree_param":{"num_deleted":"0","num_feature":"31","num_nodes":"29","size_leaf_vector":"1"}},{"base_weights":[-1.1530129E-4,-2.686072E-1,4.3175733E-1,-6.0056037E-1,-9.493312E-2,3.0870205E-1,7.95834E-1,-9.692721E-1,-5.062787E-1,1.0629145E-1,-2.1473756E-1,3.8134643E-1,6.8043105E-2,6.8666834E-1,1.060996E0,-5.6296743E-2,-4.0326744E-2,-2.9661039E-2,-1.4548837E-2,2.1639043E-2,1.690645E-3,-9.307486E-3,-4.4071425E-2,3.928575E-2,1.7311243E-2,5.360151E-3,-3.305133E-2,2.9576972E-2,3.822158E-2,-2.0775257E-2,5.3391375E-2],"categories":[],"categories_nodes":[],"categories_segments":[],"categories_sizes":[],"default_left":[0,0,0,0,1,1,0,0,1,0,0,0,0,1,0,0,0,0,0,0,0,0,0,0,0,0,0,0,0,0,0],"id":14,"left_children":[1,3,5,7,9,11,13,15,17,19,21,23,25,27,29,-1,-1,-1,-1,-1,-1,-1,-1,-1,-1,-1,-1,-1,-1,-1,-1],"loss_changes":[2.8491057E3,8.7316284E2,4.2066626E2,1.7827588E2,2.4007889E2,1.2304816E2,6.4962036E1,2.2134521E1,7.681238E1,8.78504E1,1.1801984E2,7.5397705E1,4.7140747E1,1.0161377E1,9.1779785E0,0E0,0E0,0E0,0E0,0E0,0E0,0E0,0E0,0E0,0E0,0E0,0E0,0E0,0E0,0E0,0E0],"parents":[2147483647,0,0,1,1,2,2,3,3,4,4,5,5,6,6,7,7,8,8,9,9,10,10,11,11,12,12,13,13,14,14],"right_children":[2,4,6,8,10,12,14,16,18,20,22,24,26,28,30,-1,-1,-1,-1,-1,-1,-1,-1,-1,-1,-1,-1,-1,-1,-1,-1],"split_conditions":[4.9692356E1,-1.6406332E2,2.6328693E2,-3.8492288E2,-8E0,4E0,4.2457285E2,-4.718362E2,-6.1E2,-1E2,2.18E2,-1.46E2,2.4E2,1.6191556E2,-7.69E2,-5.6296743E-2,-4.0326744E-2,-2.9661039E-2,-1.4548837E-2,2.1639043E-2,1.690645E-3,-9.307486E-3,-4.4071425E-2,3.928575E-2,1.7311243E-2,5.360151E-3,-3.305133E-2,2.9576972E-2,3.822158E-2,-2.0775257E-2,5.3391375E-2],"split_indices":[2,1,1,1,5,5,1,1,7,5,5,5,5,4,7,0,0,0,0,0,0,0,0,0,0,0,0,0,0,0,0],"split_type":[0,0,0,0,0,0,0,0,0,0,0,0,0,0,0,0,0,0,0,0,0,0,0,0,0,0,0,0,0,0,0],"sum_hessian":[2.4561074E4,1.5146644E4,9.414431E3,5.198187E3,9.948457E3,7.043345E3,2.3710854E3,1.0488682E3,4.149319E3,3.7125518E3,6.235905E3,5.407669E3,1.6356763E3,1.6925837E3,6.785017E2,5.190168E2,5.298514E2,2.9491624E3,1.2001565E3,6.69675E2,3.0428767E3,5.98578E3,2.5012537E2,4.233836E2,4.984285E3,1.5564764E3,7.919977E1,7.8122266E2,9.1136115E2,1.6798596E0,6.7682184E2],"tree_param":{"num_deleted":"0","num_feature":"31","num_nodes":"31","size_leaf_vector":"1"}},{"base_weights":[3.156139E-3,-2.631135E-1,3.989564E-1,-5.351177E-1,-6.986586E-2,5.155337E-1,-2.671121E-1,-6.7734784E-1,3.148482E-1,5.141199E-1,-1.1618426E-1,2.5558898E-1,1.1215514E0,8.187225E-2,-1.243881E0,-3.920198E-2,-6.0234107E-3,9.121861E-2,-4.2996004E-2,-4.516592E-3,7.435712E-2,-1.2996757E-2,1.3787958E-3,1.9211436E-2,-1.02109194E-1,7.559298E-2,2.2232844E-2,-7.013585E-3,-8.9695625E-2],"categories":[],"categories_nodes":[],"categories_segments":[],"categories_sizes":[],"default_left":[0,0,0,0,0,0,0,0,0,0,1,0,0,0,0,0,0,0,0,0,0,0,0,0,0,0,0,0,0],"id":15,"left_children":[1,3,5,7,9,11,13,15,17,19,21,23,25,-1,27,-1,-1,-1,-1,-1,-1,-1,-1,-1,-1,-1,-1,-1,-1],"loss_changes":[2.583401E3,7.700358E2,7.662196E2,7.368198E2,2.3216182E2,1.320426E3,2.7478423E3,3.0928955E2,1.5608645E3,3.7180286E2,1.6430072E2,1.7416375E3,6.615635E2,0E0,5.907731E2,0E0,0E0,0E0,0E0,0E0,0E0,0E0,0E0,0E0,0E0,0E0,0E0,0E0,0E0],"parents":[2147483647,0,0,1,1,2,2,3,3,4,4,5,5,6,6,7,7,8,8,9,9,10,10,11,11,12,12,14,14],"right_children":[2,4,6,8,10,12,14,16,18,20,22,24,26,-1,28,-1,-1,-1,-1,-1,-1,-1,-1,-1,-1,-1,-1,-1,-1],"split_conditions":[4.791967E1,-1.1667607E2,5.714286E-1,5.833333E-1,1E0,1E0,1E0,1E0,1E0,1E0,-3.45E2,1E0,2.5E-1,8.187225E-2,8.076923E-1,-3.920198E-2,-6.0234107E-3,9.121861E-2,-4.2996004E-2,-4.516592E-3,7.435712E-2,-1.2996757E-2,1.3787958E-3,1.9211436E-2,-1.02109194E-1,7.559298E-2,2.2232844E-2,-7.013585E-3,-8.9695625E-2],"split_indices":[0,2,11,11,18,8,8,8,8,16,7,10,11,0,11,0,0,0,0,0,0,0,0,0,0,0,0,0,0],"split_type":[0,0,0,0,0,0,0,0,0,0,0,0,0,0,0,0,0,0,0,0,0,0,0,0,0,0,0,0,0],"sum_hessian":[2.4502758E4,1.464915E4,9.853608E3,6.0808022E3,8.568349E3,8.386975E3,1.4666337E3,5.2100967E3,8.7070514E2,6.257822E2,7.942566E3,5.8744614E3,2.5125132E3,4.9600732E2,9.7062634E2,4.3705337E3,8.3956305E2,3.7988736E2,4.9081778E2,3.8873135E2,2.370509E2,3.9697388E3,3.9728271E3,5.567003E3,3.0745865E2,1.5896058E3,9.229074E2,3.24996E2,6.456304E2],"tree_param":{"num_deleted":"0","num_feature":"31","num_nodes":"29","size_leaf_vector":"1"}},{"base_weights":[1.8623546E-3,-2.9566783E-1,3.3362982E-1,-6.0923797E-1,-1.4692903E-1,4.277984E-1,-1.7415786E-1,-7.559449E-1,3.5229298E-1,4.8706904E-1,-1.8868895E-1,1.961832E-1,7.3398626E-1,-9.070046E-2,-5.2343833E-1,-5.431359E-2,-3.0784292E-2,1.2477548E-2,3.9051186E-2,7.3922805E-2,-1.1442641E-2,-5.261376E-3,-2.224954E-2,1.6588634E-2,-4.7645887E-4,3.0556131E-2,5.378697E-2,8.893526E-3,-8.332096E-3,-1.9185368E-2,-5.074816E-2],"categories":[],"categories_nodes":[],"categories_segments":[],"categories_sizes":[],"default_left":[1,0,0,0,0,0,1,0,0,0,0,1,1,0,0,0,0,0,0,0,0,0,0,0,0,0,0,0,0,0,0],"id":16,"left_children":[1,3,5,7,9,11,13,15,17,19,21,23,25,27,29,-1,-1,-1,-1,-1,-1,-1,-1,-1,-1,-1,-1,-1,-1,-1,-1],"loss_changes":[2.399551E3,5.9719495E2,5.4998083E2,5.827423E2,2.3074731E2,6.868717E2,5.221129E1,1.6223376E2,2.3100647E1,3.8425735E2,1.7437897E2,1.542311E2,1.7181348E2,2.9929667E1,2.1685654E1,0E0,0E0,0E0,0E0,0E0,0E0,0E0,0E0,0E0,0E0,0E0,0E0,0E0,0E0,0E0,0E0],"parents":[2147483647,0,0,1,1,2,2,3,3,4,4,5,5,6,6,7,7,8,8,9,9,10,10,11,11,12,12,13,13,14,14],"right_children":[2,4,6,8,10,12,14,16,18,20,22,24,26,28,30,-1,-1,-1,-1,-1,-1,-1,-1,-1,-1,-1,-1,-1,-1,-1,-1],"split_conditions":[1.1811055E0,-1.7812648E2,5.25E-1,5.588235E-1,1E0,1.4818143E2,1.6191556E2,-2.01E3,1.609438E0,1E0,4.9E1,-3E0,2.01E3,4.9827943E0,1.609438E0,-5.431359E-2,-3.0784292E-2,1.2477548E-2,3.9051186E-2,7.3922805E-2,-1.1442641E-2,-5.261376E-3,-2.224954E-2,1.6588634E-2,-4.7645887E-4,3.0556131E-2,5.378697E-2,8.893526E-3,-8.332096E-3,-1.9185368E-2,-5.074816E-2],"split_indices":[17,3,11,11,18,3,4,7,12,15,5,5,7,4,12,0,0,0,0,0,0,0,0,0,0,0,0,0,0,0,0],"split_type":[0,0,0,0,0,0,0,0,0,0,0,0,0,0,0,0,0,0,0,0,0,0,0,0,0,0,0,0,0,0,0],"sum_hessian":[2.429886E4,1.2810554E4,1.1488306E4,4.116346E3,8.694207E3,9.691933E3,1.7963724E3,3.5724482E3,5.4389813E2,5.3383435E2,8.1603726E3,5.522773E3,4.16916E3,1.4552406E3,3.411318E2,1.0545114E3,2.5179368E3,4.4532336E2,9.8574745E1,2.2167693E2,3.1215738E2,6.161426E3,1.9989469E3,3.3271792E3,2.1955938E3,3.0771333E3,1.0920267E3,3.1901157E2,1.1362291E3,2.7271182E2,6.842E1],"tree_param":{"num_deleted":"0","num_feature":"31","num_nodes":"31","size_leaf_vector":"1"}},{"base_weights":[2.6756597E-3,-2.8095368E-1,3.1990921E-1,-5.740896E-1,-1.4273961E-1,1.7323756E-1,6.003316E-1,-1.0253212E0,-4.9950257E-1,4.878495E-1,-1.8326509E-1,6.5300727E-1,1.3389343E-1,4.979717E-1,8.7220544E-1,-5.2227717E-2,-2.798878E-3,1.3969553E-2,-2.6429245E-2,7.240961E-2,-1.0649494E-2,-1.4562654E-2,-1.6981279E-4,6.909835E-2,1.6172102E-2,1.1354301E-3,1.3647921E-2,5.123647E-2,2.3160784E-2,3.713098E-2,5.093729E-2],"categories":[],"categories_nodes":[],"categories_segments":[],"categories_sizes":[],"default_left":[1,0,0,0,0,0,0,1,0,0,1,0,1,0,0,0,0,0,0,0,0,0,0,0,0,0,0,0,0,0,0],"id":17,"left_children":[1,3,5,7,9,11,13,15,17,19,21,23,25,27,29,-1,-1,-1,-1,-1,-1,-1,-1,-1,-1,-1,-1,-1,-1,-1,-1],"loss_changes":[2.174773E3,5.1653345E2,4.686731E2,1.3483875E2,2.2220578E2,1.4102672E2,1.0666797E2,1.0313904E1,8.043506E1,3.552141E2,1.584361E2,1.3377109E2,1.0719351E2,4.9779785E1,1.6249084E1,0E0,0E0,0E0,0E0,0E0,0E0,0E0,0E0,0E0,0E0,0E0,0E0,0E0,0E0,0E0,0E0],"parents":[2147483647,0,0,1,1,2,2,3,3,4,4,5,5,6,6,7,7,8,8,9,9,10,10,11,11,12,12,13,13,14,14],"right_children":[2,4,6,8,10,12,14,16,18,20,22,24,26,28,30,-1,-1,-1,-1,-1,-1,-1,-1,-1,-1,-1,-1,-1,-1,-1,-1],"split_conditions":[1.1811055E0,-1.9519035E2,1.8822244E2,-4.529965E2,1E0,1E0,3.6399918E2,-5.67E2,1E0,1E0,-1.34E2,1E0,1.17E2,1E0,4.6195178E2,-5.2227717E-2,-2.798878E-3,1.3969553E-2,-2.6429245E-2,7.240961E-2,-1.0649494E-2,-1.4562654E-2,-1.6981279E-4,6.909835E-2,1.6172102E-2,1.1354301E-3,1.3647921E-2,5.123647E-2,2.3160784E-2,3.713098E-2,5.093729E-2],"split_indices":[17,1,1,1,18,18,1,7,18,15,7,15,7,18,1,0,0,0,0,0,0,0,0,0,0,0,0,0,0,0,0],"split_type":[0,0,0,0,0,0,0,0,0,0,0,0,0,0,0,0,0,0,0,0,0,0,0,0,0,0,0,0,0,0,0],"sum_hessian":[2.4160354E4,1.2755915E4,1.14044375E4,4.081993E3,8.673922E3,7.493497E3,3.910941E3,5.697973E2,3.5121956E3,5.20296E2,8.153626E3,5.618359E2,6.931661E3,2.8517788E3,1.0591622E3,5.5823016E2,1.1567152E1,1.24745445E2,3.3874502E3,2.1731946E2,3.0297653E2,5.0925537E3,3.0610725E3,1.698586E2,3.919773E2,3.8555881E3,3.0760728E3,1.6752335E2,2.6842554E3,5.7856085E2,4.8060135E2],"tree_param":{"num_deleted":"0","num_feature":"31","num_nodes":"31","size_leaf_vector":"1"}},{"base_weights":[1.4318693E-3,-2.2027999E-1,3.7282047E-1,-4.910274E-1,-6.591533E-2,2.64737E-1,6.9644475E-1,-7.9056525E-1,-3.8700828E-1,4.118797E-1,-1.0188285E-1,7.341901E-1,2.3528916E-1,6.0309005E-1,9.756796E-1,-5.3510427E-2,-3.435571E-2,-2.9067397E-2,-1.5521805E-2,3.8886152E-2,1.5025715E-2,-4.122803E-3,-4.0569324E-2,4.426662E-2,2.555727E-2,9.061576E-3,2.2249794E-2,2.273828E-2,3.3003595E-2,4.9205113E-2,-8.675746E-3],"categories":[],"categories_nodes":[],"categories_segments":[],"categories_sizes":[],"default_left":[0,0,0,0,0,1,0,0,1,0,1,0,1,0,1,0,0,0,0,0,0,0,0,0,0,0,0,0,0,0,0],"id":18,"left_children":[1,3,5,7,9,11,13,15,17,19,21,23,25,27,29,-1,-1,-1,-1,-1,-1,-1,-1,-1,-1,-1,-1,-1,-1,-1,-1],"loss_changes":[1.9856544E3,6.3087225E2,3.1430212E2,1.691604E2,1.655513E2,9.257593E1,5.5647705E1,3.687982E1,5.9709045E1,2.6203651E1,1.2298595E2,1.0974747E1,7.179413E1,1.2775513E1,6.319519E0,0E0,0E0,0E0,0E0,0E0,0E0,0E0,0E0,0E0,0E0,0E0,0E0,0E0,0E0,0E0,0E0],"parents":[2147483647,0,0,1,1,2,2,3,3,4,4,5,5,6,6,7,7,8,8,9,9,10,10,11,11,12,12,13,13,14,14],"right_children":[2,4,6,8,10,12,14,16,18,20,22,24,26,28,30,-1,-1,-1,-1,-1,-1,-1,-1,-1,-1,-1,-1,-1,-1,-1,-1],"split_conditions":[5.3745777E1,-1.499416E2,2.6328693E2,-3.4083826E2,-1E2,-1.55E2,4.4257828E2,-4.6409692E2,-1.14713776E2,-3.07E2,2.18E2,-2.18E2,1.2823824E2,2.2992899E2,1.33E2,-5.3510427E-2,-3.435571E-2,-2.9067397E-2,-1.5521805E-2,3.8886152E-2,1.5025715E-2,-4.122803E-3,-4.0569324E-2,4.426662E-2,2.555727E-2,9.061576E-3,2.2249794E-2,2.273828E-2,3.3003595E-2,4.9205113E-2,-8.675746E-3],"split_indices":[2,1,1,1,5,5,1,2,17,5,5,5,17,2,5,0,0,0,0,0,0,0,0,0,0,0,0,0,0,0,0],"split_type":[0,0,0,0,0,0,0,0,0,0,0,0,0,0,0,0,0,0,0,0,0,0,0,0,0,0,0,0,0,0,0],"sum_hessian":[2.4104766E4,1.5095066E4,9.009699E3,5.477053E3,9.618013E3,6.7610537E3,2.2486455E3,1.402988E3,4.0740652E3,6.6948535E2,8.948527E3,3.9181104E2,6.3692427E3,1.6973419E3,5.5130365E2,3.659851E2,1.0370029E3,1.1418334E3,2.9322317E3,1.490453E2,5.2044006E2,8.715609E3,2.3291849E2,2.2443309E2,1.6737796E2,5.0716772E3,1.2975657E3,4.840396E2,1.2133024E3,5.4809186E2,3.2117467E0],"tree_param":{"num_deleted":"0","num_feature":"31","num_nodes":"31","size_leaf_vector":"1"}},{"base_weights":[-2.6304037E-3,-3.430967E-1,2.1558537E-1,-4.779421E-1,1.7221469E-1,6.754232E-2,4.8775548E-1,-1.8859065E-1,-1.2930613E0,9.180154E-2,-6.048401E-1,5.757994E-1,2.4709763E-2,6.520777E-1,-1.9636962E-1,-1.7102761E-2,1.11889265E-1,-7.560172E-2,9.732315E-3,-5.3942543E-2,3.8762517E-2,6.856368E-2,7.7655697E-3,-7.654298E-3,6.7704557E-3,1.8928437E-2,6.383719E-2,-8.438915E-2,2.6024718E-2],"categories":[],"categories_nodes":[],"categories_segments":[],"categories_sizes":[],"default_left":[0,0,0,0,0,0,0,0,0,0,0,0,1,0,0,0,0,0,0,0,0,0,0,0,0,0,0,0,0],"id":19,"left_children":[1,3,5,7,9,11,13,15,17,-1,19,21,23,25,27,-1,-1,-1,-1,-1,-1,-1,-1,-1,-1,-1,-1,-1,-1],"loss_changes":[1.780811E3,6.510051E2,5.883361E2,1.7491577E3,2.5207183E3,2.0596274E2,5.7907715E2,2.0454971E3,6.3473E2,0E0,8.7409644E2,2.4476242E2,1.7205263E2,7.064302E2,1.0738513E3,0E0,0E0,0E0,0E0,0E0,0E0,0E0,0E0,0E0,0E0,0E0,0E0,0E0,0E0],"parents":[2147483647,0,0,1,1,2,2,3,3,4,4,5,5,6,6,7,7,8,8,10,10,11,11,12,12,13,13,14,14],"right_children":[2,4,6,8,10,12,14,16,18,-1,20,22,24,26,28,-1,-1,-1,-1,-1,-1,-1,-1,-1,-1,-1,-1,-1,-1],"split_conditions":[-4.6126396E1,5E-1,1.4311081E2,1E0,1E0,1E0,4.864865E-1,1E0,2E0,9.180154E-2,2E0,1E0,-3.45E2,1E0,1E0,-1.7102761E-2,1.11889265E-1,-7.560172E-2,9.732315E-3,-5.3942543E-2,3.8762517E-2,6.856368E-2,7.7655697E-3,-7.654298E-3,6.7704557E-3,1.8928437E-2,6.383719E-2,-8.438915E-2,2.6024718E-2],"split_indices":[2,11,2,9,8,18,11,8,8,0,9,15,7,8,9,0,0,0,0,0,0,0,0,0,0,0,0,0,0],"split_type":[0,0,0,0,0,0,0,0,0,0,0,0,0,0,0,0,0,0,0,0,0,0,0,0,0,0,0,0,0],"sum_hessian":[2.3959273E4,9.35732E3,1.4601954E4,7.4170117E3,1.9403083E3,9.461898E3,5.140056E3,5.4785225E3,1.9384895E3,6.155717E2,1.3247367E3,7.3039386E2,8.731504E3,4.1448677E3,9.9518854E2,5.156705E3,3.2181738E2,1.6897617E3,2.4872775E2,9.86927E2,3.3780963E2,2.4858334E2,4.8181055E2,3.349312E3,5.3821924E3,2.888384E3,1.2564834E3,3.209109E2,6.7427765E2],"tree_param":{"num_deleted":"0","num_feature":"31","num_nodes":"29","size_leaf_vector":"1"}},{"base_weights":[1.0080609E-3,-1.779264E-1,3.7801704E-1,-4.7141802E-1,-4.5807477E-2,4.94876E-1,-3.0188903E-1,-6.3004506E-1,1.9407663E-1,4.5335415E-1,-8.340379E-2,2.4799436E-1,1.0544536E0,7.620523E-2,-1.1926113E0,-1.7142331E-2,-6.3647315E-2,8.479424E-2,-2.636884E-2,6.965976E-2,-3.2638148E-3,-7.1153766E-3,3.855763E-3,1.8170433E-2,-1.0051383E-1,6.853581E-2,1.8284846E-2,-8.8081926E-2,3.8594734E-2],"categories":[],"categories_nodes":[],"categories_segments":[],"categories_sizes":[],"default_left":[0,0,0,0,0,0,0,0,0,0,0,0,0,0,0,0,0,0,0,0,0,0,0,0,0,0,0,0,0],"id":20,"left_children":[1,3,5,7,9,11,13,15,17,19,21,23,25,-1,27,-1,-1,-1,-1,-1,-1,-1,-1,-1,-1,-1,-1,-1,-1],"loss_changes":[1.610161E3,6.274588E2,6.111493E2,5.309806E2,2.0972217E2,9.04489E2,1.84649E3,7.469281E2,1.0562806E3,3.821361E2,9.829485E1,1.19115E3,4.3424268E2,0E0,8.588873E2,0E0,0E0,0E0,0E0,0E0,0E0,0E0,0E0,0E0,0E0,0E0,0E0,0E0,0E0],"parents":[2147483647,0,0,1,1,2,2,3,3,4,4,5,5,6,6,7,7,8,8,9,9,10,10,11,11,12,12,14,14],"right_children":[2,4,6,8,10,12,14,16,18,20,22,24,26,-1,28,-1,-1,-1,-1,-1,-1,-1,-1,-1,-1,-1,-1,-1,-1],"split_conditions":[8.437022E1,-1.4310875E2,5.9090906E-1,5E-1,1E0,1E0,1E0,1E0,1E0,1E0,4.6128937E1,1E0,3.1578946E-1,7.620523E-2,2E0,-1.7142331E-2,-6.3647315E-2,8.479424E-2,-2.636884E-2,6.965976E-2,-3.2638148E-3,-7.1153766E-3,3.855763E-3,1.8170433E-2,-1.0051383E-1,6.853581E-2,1.8284846E-2,-8.8081926E-2,3.8594734E-2],"split_indices":[1,2,11,11,18,8,8,9,8,15,2,9,11,0,9,0,0,0,0,0,0,0,0,0,0,0,0,0,0],"split_type":[0,0,0,0,0,0,0,0,0,0,0,0,0,0,0,0,0,0,0,0,0,0,0,0,0,0,0,0,0],"sum_hessian":[2.3858135E4,1.618083E4,7.6773047E3,5.0186665E3,1.1162164E4,6.552586E3,1.1247189E3,4.0530095E3,9.6565717E2,7.7777594E2,1.0384388E4,4.5517715E3,2.0008145E3,3.67556E2,7.5716284E2,2.806918E3,1.2460916E3,3.1121146E2,6.544457E2,2.736464E2,5.0412955E2,7.597584E3,2.7868035E3,4.334487E3,2.1728456E2,1.3676996E3,6.3311487E2,5.875452E2,1.6961766E2],"tree_param":{"num_deleted":"0","num_feature":"31","num_nodes":"29","size_leaf_vector":"1"}},{"base_weights":[-3.0647956E-5,-3.1312186E-1,2.0572224E-1,-6.8907386E-1,-2.3185569E-1,5.328155E-1,9.210012E-2,-9.5913553E-1,-5.9585655E-1,-5.195167E-1,-1.6069335E-1,4.68014E-1,9.333231E-1,5.6832534E-1,5.6672495E-2,-5.4409213E-2,-4.1346803E-2,-2.646001E-2,-4.6558786E-2,-3.1053562E-2,-1.7832918E-2,2.0741483E-2,-9.748909E-3,5.0929625E-2,2.161227E-2,3.813026E-2,5.160148E-2,6.55564E-2,1.0637668E-2,8.401133E-4,2.3846535E-2],"categories":[],"categories_nodes":[],"categories_segments":[],"categories_sizes":[],"default_left":[0,1,1,0,1,0,0,0,0,1,0,0,0,0,1,0,0,0,0,0,0,0,0,0,0,0,0,0,0,0,0],"id":21,"left_children":[1,3,5,7,9,11,13,15,17,19,21,23,25,27,29,-1,-1,-1,-1,-1,-1,-1,-1,-1,-1,-1,-1,-1,-1,-1,-1],"loss_changes":[1.5279507E3,2.8648438E2,5.3161914E2,3.9005127E1,1.5799765E2,9.341028E1,1.7910184E2,2.471222E0,2.542453E1,2.4146973E1,1.22997055E2,6.0381653E1,4.453491E0,1.9263649E2,1.6577052E2,0E0,0E0,0E0,0E0,0E0,0E0,0E0,0E0,0E0,0E0,0E0,0E0,0E0,0E0,0E0,0E0],"parents":[2147483647,0,0,1,1,2,2,3,3,4,4,5,5,6,6,7,7,8,8,9,9,10,10,11,11,12,12,13,13,14,14],"right_children":[2,4,6,8,10,12,14,16,18,20,22,24,26,28,30,-1,-1,-1,-1,-1,-1,-1,-1,-1,-1,-1,-1,-1,-1,-1,-1],"split_conditions":[-5.5302917E1,-2.553322E4,-1.0261732E4,-4.529965E2,-1.14713776E2,4.4257828E2,1E0,-4.9150943E2,6.666667E-1,-1.635E3,1E0,1E0,4.4185556E2,1E0,1.47E3,-5.4409213E-2,-4.1346803E-2,-2.646001E-2,-4.6558786E-2,-3.1053562E-2,-1.7832918E-2,2.0741483E-2,-9.748909E-3,5.0929625E-2,2.161227E-2,3.813026E-2,5.160148E-2,6.55564E-2,1.0637668E-2,8.401133E-4,2.3846535E-2],"split_indices":[1,6,6,1,17,1,18,2,13,7,18,18,2,15,7,0,0,0,0,0,0,0,0,0,0,0,0,0,0,0,0],"split_type":[0,0,0,0,0,0,0,0,0,0,0,0,0,0,0,0,0,0,0,0,0,0,0,0,0,0,0,0,0,0,0],"sum_hessian":[2.3708621E4,9.401052E3,1.4307569E4,1.6640818E3,7.7369707E3,3.6836934E3,1.0623876E4,4.148097E2,1.2492721E3,1.5278805E3,6.20909E3,3.1802295E3,5.0346384E2,7.302103E2,9.893666E3,1.9122702E2,2.2358269E2,1.0531176E3,1.9615454E2,9.3201605E2,5.9586444E2,3.4580554E2,5.8632847E3,1.8545042E2,2.994779E3,2.0080484E2,3.02659E2,2.3194688E2,4.9826346E2,9.041344E3,8.523217E2],"tree_param":{"num_deleted":"0","num_feature":"31","num_nodes":"31","size_leaf_vector":"1"}},{"base_weights":[9.263984E-4,2.5963148E-1,-2.35312E-1,3.4630492E-1,-2.3723678E-1,-3.351381E-1,1.3140795E-1,4.679716E-1,-2.556455E-1,-8.5565664E-2,8.8331455E-1,-8.023916E-2,-1.1991515E0,-1.6573328E0,7.376383E-1,1.2562393E-2,7.3432766E-2,-9.29223E-2,1.9303786E-2,-1.0710021E-2,7.927876E-2,-1.2160193E-2,1.0275205E-1,-7.476946E-2,-2.2657987E-2,-7.105162E-2,-8.8071436E-2,9.2354923E-4,8.94074E-2],"categories":[],"categories_nodes":[],"categories_segments":[],"categories_sizes":[],"default_left":[1,0,0,0,0,0,0,0,0,0,0,0,0,0,0,0,0,0,0,0,0,0,0,0,0,0,0,0,0],"id":22,"left_children":[1,3,5,7,9,11,13,15,17,-1,19,21,23,25,27,-1,-1,-1,-1,-1,-1,-1,-1,-1,-1,-1,-1,-1,-1],"loss_changes":[1.4446436E3,4.8630725E2,4.525398E2,7.043528E2,2.7803015E3,2.1385752E3,2.8763801E3,1.7319246E3,1.6686637E3,0E0,7.393665E2,2.6141655E3,4.8531494E2,3.6845703E0,1.4958789E3,0E0,0E0,0E0,0E0,0E0,0E0,0E0,0E0,0E0,0E0,0E0,0E0,0E0,0E0],"parents":[2147483647,0,0,1,1,2,2,3,3,4,4,5,5,6,6,7,7,8,8,10,10,11,11,12,12,13,13,14,14],"right_children":[2,4,6,8,10,12,14,16,18,-1,20,22,24,26,28,-1,-1,-1,-1,-1,-1,-1,-1,-1,-1,-1,-1,-1,-1],"split_conditions":[-3E0,5.9090906E-1,4.4444445E-1,1E0,1E0,1E0,1E0,1E0,5.5555556E-2,-8.5565664E-2,9.4736844E-1,1E0,1.3333334E-1,-1.499416E2,8.8235295E-1,1.2562393E-2,7.3432766E-2,-9.29223E-2,1.9303786E-2,-1.0710021E-2,7.927876E-2,-1.2160193E-2,1.0275205E-1,-7.476946E-2,-2.2657987E-2,-7.105162E-2,-8.8071436E-2,9.2354923E-4,8.94074E-2],"split_indices":[5,11,11,9,9,9,9,10,11,0,11,10,11,1,11,0,0,0,0,0,0,0,0,0,0,0,0,0,0],"split_type":[0,0,0,0,0,0,0,0,0,0,0,0,0,0,0,0,0,0,0,0,0,0,0,0,0,0,0,0,0],"sum_hessian":[2.3627662E4,1.1277538E4,1.2350124E4,9.603947E3,1.6735912E3,9.708141E3,2.6419834E3,7.9902344E3,1.6137129E3,7.2168E2,9.519112E2,7.5008423E3,2.2072986E3,6.6651953E2,1.9754637E3,6.5730312E3,1.4172031E3,4.5870358E2,1.1550093E3,3.7272983E2,5.7918134E2,6.97313E3,5.277123E2,1.5762169E3,6.310815E2,2.2652292E2,4.3999658E2,1.1757449E3,7.9971893E2],"tree_param":{"num_deleted":"0","num_feature":"31","num_nodes":"29","size_leaf_vector":"1"}},{"base_weights":[1.9494656E-3,-1.6722439E-1,3.3462343E-1,-4.6716258E-1,-6.382155E-2,4.6832976E-1,-1.5019204E-1,-5.8698916E-1,4.4987744E-1,4.175705E-1,-9.5920295E-2,2.0423704E-1,1.189487E0,-8.1186585E-2,5.014328E-1,-1.8196566E-2,-4.9569905E-2,-6.958078E-2,7.380065E-2,6.741768E-2,-6.5511516E-3,-2.112312E-3,-1.7102342E-2,1.7022368E-2,-9.279719E-2,7.071305E-2,-9.311052E-3,4.911862E-2,-3.803029E-2],"categories":[],"categories_nodes":[],"categories_segments":[],"categories_sizes":[],"default_left":[1,0,0,0,0,0,0,0,0,0,1,0,0,0,0,0,0,0,0,0,0,0,0,0,0,0,0,0,0],"id":23,"left_children":[1,3,5,7,9,11,13,15,17,19,21,23,25,-1,27,-1,-1,-1,-1,-1,-1,-1,-1,-1,-1,-1,-1,-1,-1],"loss_changes":[1.3212881E3,4.824636E2,5.1341034E2,4.3963318E2,1.7908661E2,1.1803689E3,1.6503999E3,3.164889E2,8.864775E2,3.7097473E2,1.4334827E2,1.2791956E3,5.153821E2,0E0,7.2758777E2,0E0,0E0,0E0,0E0,0E0,0E0,0E0,0E0,0E0,0E0,0E0,0E0,0E0,0E0],"parents":[2147483647,0,0,1,1,2,2,3,3,4,4,5,5,6,6,7,7,8,8,9,9,10,10,11,11,12,12,14,14],"right_children":[2,4,6,8,10,12,14,16,18,20,22,24,26,-1,28,-1,-1,-1,-1,-1,-1,-1,-1,-1,-1,-1,-1,-1,-1],"split_conditions":[3.0058971E1,-1.7812648E2,5E-1,6.875E-1,1E0,1E0,1E0,1E0,1E0,1E0,5.6E1,1E0,2E0,-8.1186585E-2,2E0,-1.8196566E-2,-4.9569905E-2,-6.958078E-2,7.380065E-2,6.741768E-2,-6.5511516E-3,-2.112312E-3,-1.7102342E-2,1.7022368E-2,-9.279719E-2,7.071305E-2,-9.311052E-3,4.911862E-2,-3.803029E-2],"split_indices":[17,3,11,11,18,8,9,9,9,15,5,9,9,0,8,0,0,0,0,0,0,0,0,0,0,0,0,0,0],"split_type":[0,0,0,0,0,0,0,0,0,0,0,0,0,0,0,0,0,0,0,0,0,0,0,0,0,0,0,0,0],"sum_hessian":[2.3466887E4,1.5557604E4,7.909283E3,3.9836804E3,1.1573923E4,6.1998223E3,1.7094608E3,3.5249902E3,4.5869012E2,7.195477E2,1.0854375E4,4.54278E3,1.6570425E3,5.2192035E2,1.1875404E3,2.278175E3,1.2468151E3,1.634629E2,2.9522723E2,2.6419266E2,4.5535507E2,8.916232E3,1.9381433E3,4.2650176E3,2.777623E2,1.424267E3,2.3277547E2,8.607223E2,3.2681818E2],"tree_param":{"num_deleted":"0","num_feature":"31","num_nodes":"29","size_leaf_vector":"1"}},{"base_weights":[1.1107991E-3,-2.7879238E-1,1.8774487E-1,-4.007118E-1,2.0116687E-1,7.3291406E-2,4.721335E-1,-4.970884E-1,3.8959062E-1,8.355823E-2,-5.063086E-1,5.4892766E-1,3.6549825E-2,6.0003835E-1,-3.3755916E-1,-1.3857146E-2,-7.0343554E-2,1.0506939E-1,-3.152222E-2,3.7167172E-3,-7.622561E-2,9.82708E-3,6.3689366E-2,3.893782E-3,-1.1305591E-2,1.9683875E-2,5.1389188E-2,6.793828E-2,-5.3623628E-2],"categories":[],"categories_nodes":[],"categories_segments":[],"categories_sizes":[],"default_left":[0,0,0,0,0,0,0,0,0,0,0,0,0,0,0,0,0,0,0,0,0,0,0,0,0,0,0,0,0],"id":24,"left_children":[1,3,5,7,9,11,13,15,17,-1,19,21,23,25,27,-1,-1,-1,-1,-1,-1,-1,-1,-1,-1,-1,-1,-1,-1],"loss_changes":[1.2177479E3,5.460981E2,4.5500217E2,5.6751135E2,1.9721223E3,1.7422333E2,4.16565E2,1.324942E3,1.4231356E3,0E0,7.581411E2,1.8123218E2,1.0068115E2,3.038523E2,6.934631E2,0E0,0E0,0E0,0E0,0E0,0E0,0E0,0E0,0E0,0E0,0E0,0E0,0E0,0E0],"parents":[2147483647,0,0,1,1,2,2,3,3,4,4,5,5,6,6,7,7,8,8,10,10,11,11,12,12,13,13,14,14],"right_children":[2,4,6,8,10,12,14,16,18,-1,20,22,24,26,28,-1,-1,-1,-1,-1,-1,-1,-1,-1,-1,-1,-1,-1,-1],"split_conditions":[-4.7643642E1,5E-1,1.7814821E2,1E0,1E0,1E0,5.588235E-1,6.931472E-1,5.5555556E-2,8.355823E-2,9.4736844E-1,1E0,2.8E1,1E0,1E0,-1.3857146E-2,-7.0343554E-2,1.0506939E-1,-3.152222E-2,3.7167172E-3,-7.622561E-2,9.82708E-3,6.3689366E-2,3.893782E-3,-1.1305591E-2,1.9683875E-2,5.1389188E-2,6.793828E-2,-5.3623628E-2],"split_indices":[0,11,3,8,8,18,11,12,11,0,11,16,18,8,8,0,0,0,0,0,0,0,0,0,0,0,0,0,0],"split_type":[0,0,0,0,0,0,0,0,0,0,0,0,0,0,0,0,0,0,0,0,0,0,0,0,0,0,0,0,0],"sum_hessian":[2.3301043E4,9.320173E3,1.398087E4,7.433059E3,1.8871144E3,9.973594E3,4.0072769E3,6.626897E3,8.061621E2,6.1096906E2,1.2761454E3,7.09993E2,9.263601E3,3.4618381E3,5.454388E2,5.3420557E3,1.2848413E3,2.9906915E2,5.0709293E2,8.155849E2,4.6056046E2,4.821112E2,2.2788174E2,8.007621E3,1.2559791E3,2.341867E3,1.1199713E3,1.6355083E2,3.8188794E2],"tree_param":{"num_deleted":"0","num_feature":"31","num_nodes":"29","size_leaf_vector":"1"}},{"base_weights":[5.9701264E-4,2.1790634E-1,-2.2998108E-1,4.9741933E-1,1.1233402E-1,-5.2670443E-1,-1.3373241E-1,4.346324E-1,8.654274E-1,6.288202E-1,7.6112084E-2,-8.7855023E-1,-4.499653E-1,-4.005069E-1,-7.245239E-2,4.716493E-2,2.0049227E-2,3.555041E-2,4.9364038E-2,6.275141E-2,1.4302592E-2,-2.1229126E-4,1.2764295E-2,1.088336E-2,-4.444604E-2,-1.894085E-2,-3.87726E-2,1.9186089E-2,-2.1505816E-2,1.582548E-2,-4.961726E-3],"categories":[],"categories_nodes":[],"categories_segments":[],"categories_sizes":[],"default_left":[1,0,1,0,0,0,0,0,0,0,1,0,0,0,0,0,0,0,0,0,0,0,0,0,0,0,0,0,0,0,0],"id":25,"left_children":[1,3,5,7,9,11,13,15,17,19,21,23,25,27,29,-1,-1,-1,-1,-1,-1,-1,-1,-1,-1,-1,-1,-1,-1,-1,-1],"loss_changes":[1.1607229E3,3.5157788E2,3.2056335E2,7.349518E1,1.6175996E2,7.2163025E1,1.3865668E2,4.592859E1,5.1828003E0,1.19725815E2,1.1667186E2,6.571594E0,5.0954926E1,3.7637604E1,7.215197E1,0E0,0E0,0E0,0E0,0E0,0E0,0E0,0E0,0E0,0E0,0E0,0E0,0E0,0E0,0E0,0E0],"parents":[2147483647,0,0,1,1,2,2,3,3,4,4,5,5,6,6,7,7,8,8,9,9,10,10,11,11,12,12,13,13,14,14],"right_children":[2,4,6,8,10,12,14,16,18,20,22,24,26,28,30,-1,-1,-1,-1,-1,-1,-1,-1,-1,-1,-1,-1,-1,-1,-1,-1],"split_conditions":[3E0,-1.1332711E4,-9.647422E1,4.4257828E2,1E0,-4.0550168E2,-1.3964778E4,1E0,4.6408527E2,1E0,5.6896244E1,1E0,1.22E2,1E0,1E0,4.716493E-2,2.0049227E-2,3.555041E-2,4.9364038E-2,6.275141E-2,1.4302592E-2,-2.1229126E-4,1.2764295E-2,1.088336E-2,-4.444604E-2,-1.894085E-2,-3.87726E-2,1.9186089E-2,-2.1505816E-2,1.582548E-2,-4.961726E-3],"split_indices":[5,6,17,1,18,2,6,18,2,15,17,18,5,18,18,0,0,0,0,0,0,0,0,0,0,0,0,0,0,0,0],"split_type":[0,0,0,0,0,0,0,0,0,0,0,0,0,0,0,0,0,0,0,0,0,0,0,0,0,0,0,0,0,0,0],"sum_hessian":[2.3155018E4,1.192086E4,1.1234158E4,3.262793E3,8.658067E3,2.7457947E3,8.488363E3,2.7967998E3,4.6599326E2,5.6186786E2,8.096199E3,4.8205338E2,2.2637412E3,1.5801365E3,6.908227E3,1.6495607E2,2.6318438E3,2.209672E2,2.4502606E2,1.9394614E2,3.6792172E2,5.5923857E3,2.5038135E3,3.4906354E0,4.7856274E2,1.8668024E3,3.9693884E2,5.5190742E1,1.5249457E3,4.413011E2,6.4669263E3],"tree_param":{"num_deleted":"0","num_feature":"31","num_nodes":"31","size_leaf_vector":"1"}},{"base_weights":[-1.0643968E-4,-2.7049914E-1,1.650883E-1,-3.8692856E-1,1.7044206E-1,6.357918E-2,4.4649872E-1,-4.9080628E-1,4.0681472E-1,8.143629E-2,-5.0314724E-1,4.2574292E-1,2.9387465E-2,6.006634E-1,-2.4150863E-1,-1.3527718E-2,-6.903581E-2,9.875179E-2,-3.0320812E-2,3.2956458E-3,-7.520088E-2,3.81737E-2,1.5597892E-2,2.869777E-3,-1.6990082E-2,1.8729059E-2,5.8594357E-2,6.609633E-2,-3.411807E-2],"categories":[],"categories_nodes":[],"categories_segments":[],"categories_sizes":[],"default_left":[0,0,0,0,0,0,0,0,0,0,0,0,1,0,0,0,0,0,0,0,0,0,0,0,0,0,0,0,0],"id":26,"left_children":[1,3,5,7,9,11,13,15,17,-1,19,21,23,25,27,-1,-1,-1,-1,-1,-1,-1,-1,-1,-1,-1,-1,-1,-1],"loss_changes":[1.0292242E3,4.489831E2,4.0838248E2,5.7116187E2,1.8005348E3,1.3012976E2,4.0280908E2,1.1969479E3,1.2818491E3,0E0,7.1525476E2,3.3543793E1,9.94993E1,3.9776318E2,4.850747E2,0E0,0E0,0E0,0E0,0E0,0E0,0E0,0E0,0E0,0E0,0E0,0E0,0E0,0E0],"parents":[2147483647,0,0,1,1,2,2,3,3,4,4,5,5,6,6,7,7,8,8,10,10,11,11,12,12,13,13,14,14],"right_children":[2,4,6,8,10,12,14,16,18,-1,20,22,24,26,28,-1,-1,-1,-1,-1,-1,-1,-1,-1,-1,-1,-1,-1,-1],"split_conditions":[-4.9729485E1,5E-1,1.7814821E2,1E0,1E0,-1E2,5E-1,1E0,5.5555556E-2,8.143629E-2,9.4736844E-1,-2.7E2,9.7E1,1E0,1E0,-1.3527718E-2,-6.903581E-2,9.875179E-2,-3.0320812E-2,3.2956458E-3,-7.520088E-2,3.81737E-2,1.5597892E-2,2.869777E-3,-1.6990082E-2,1.8729059E-2,5.8594357E-2,6.609633E-2,-3.411807E-2],"split_indices":[2,11,3,8,8,5,11,10,11,0,11,5,5,8,8,0,0,0,0,0,0,0,0,0,0,0,0,0,0],"split_type":[0,0,0,0,0,0,0,0,0,0,0,0,0,0,0,0,0,0,0,0,0,0,0,0,0,0,0,0,0],"sum_hessian":[2.3031693E4,8.733695E3,1.4297998E4,6.9099736E3,1.8237219E3,1.0512471E4,3.785527E3,6.112112E3,7.9786206E2,5.740323E2,1.2496896E3,9.016696E2,9.610802E3,3.0932007E3,6.923263E2,4.9048086E3,1.2073033E3,3.1134012E2,4.8652197E2,7.996227E2,4.5006693E2,2.1981078E2,6.818588E2,8.937279E3,6.73522E2,2.2221565E3,8.710442E2,1.5003264E2,5.4229364E2],"tree_param":{"num_deleted":"0","num_feature":"31","num_nodes":"29","size_leaf_vector":"1"}},{"base_weights":[5.339397E-4,-1.5524893E-1,2.6624736E-1,-3.9429647E-1,-5.584853E-2,1.9520865E-1,6.450305E-1,-6.5413207E-1,-2.9465336E-1,3.5898456E-1,-8.6728044E-2,6.793056E-1,1.6287279E-1,5.4792935E-1,9.200867E-1,-4.4096913E-2,-2.684778E-2,2.0688316E-2,-1.5974322E-2,6.640231E-2,-7.420011E-3,-1.04987435E-2,1.1994893E-3,6.083576E-2,2.3424845E-2,4.518881E-3,1.56032145E-2,1.8932812E-2,3.0590475E-2,-1.43449E-2,4.646817E-2],"categories":[],"categories_nodes":[],"categories_segments":[],"categories_sizes":[],"default_left":[0,0,0,0,0,0,0,0,0,0,1,0,1,0,0,0,0,0,0,0,0,0,0,0,0,0,0,0,0,0,0],"id":27,"left_children":[1,3,5,7,9,11,13,15,17,19,21,23,25,27,29,-1,-1,-1,-1,-1,-1,-1,-1,-1,-1,-1,-1,-1,-1,-1,-1],"loss_changes":[9.496867E2,3.435036E2,2.2746014E2,1.0888818E2,1.3106215E2,1.11253815E2,3.303546E1,2.8794281E1,5.4815247E1,3.4965793E2,1.2991513E2,4.748497E1,7.2360794E1,9.5625305E0,5.2172546E0,0E0,0E0,0E0,0E0,0E0,0E0,0E0,0E0,0E0,0E0,0E0,0E0,0E0,0E0,0E0,0E0],"parents":[2147483647,0,0,1,1,2,2,3,3,4,4,5,5,6,6,7,7,8,8,9,9,10,10,11,11,12,12,13,13,14,14],"right_children":[2,4,6,8,10,12,14,16,18,20,22,24,26,28,30,-1,-1,-1,-1,-1,-1,-1,-1,-1,-1,-1,-1,-1,-1,-1,-1],"split_conditions":[5.3745777E1,-1.6053473E2,3.0521725E2,-3.285671E2,1E0,1E0,4.6697067E2,-4.67029E2,1E0,1E0,-3.77E2,1E0,5.96E2,1.075E3,-7.69E2,-4.4096913E-2,-2.684778E-2,2.0688316E-2,-1.5974322E-2,6.640231E-2,-7.420011E-3,-1.04987435E-2,1.1994893E-3,6.083576E-2,2.3424845E-2,4.518881E-3,1.56032145E-2,1.8932812E-2,3.0590475E-2,-1.43449E-2,4.646817E-2],"split_indices":[2,2,2,0,18,18,0,0,18,15,7,15,7,7,7,0,0,0,0,0,0,0,0,0,0,0,0,0,0,0,0],"split_type":[0,0,0,0,0,0,0,0,0,0,0,0,0,0,0,0,0,0,0,0,0,0,0,0,0,0,0,0,0,0,0],"sum_hessian":[2.2932578E4,1.4457888E4,8.474689E3,4.2415547E3,1.0216333E4,7.1429155E3,1.3317743E3,1.1677166E3,3.073838E3,7.03895E2,9.512438E3,4.4078802E2,6.7021274E3,9.956209E2,3.3615332E2,3.8525143E2,7.824651E2,1.0131329E2,2.9725247E3,2.3918399E2,4.6471106E2,4.499826E3,5.012612E3,1.1733529E2,3.2345273E2,4.516276E3,2.1858513E3,2.8270297E2,7.1291797E2,1.3404058E0,3.3481293E2],"tree_param":{"num_deleted":"0","num_feature":"31","num_nodes":"31","size_leaf_vector":"1"}},{"base_weights":[-1.2292198E-3,1.8749142E-1,-2.0820265E-1,1.2902075E-1,5.8877826E-1,-4.691348E-1,-1.1307946E-1,6.072476E-1,9.683567E-2,5.04049E-1,8.4592396E-1,-8.661659E-1,-4.0902147E-1,-4.4624752E-1,-7.182588E-2,6.1900206E-2,1.4506789E-2,3.0469252E-2,3.689805E-3,2.9203549E-2,1.8131638E-2,4.2697217E-2,-5.6276806E-3,-4.3665484E-2,5.174696E-3,1.3325691E-2,-2.1767102E-2,-2.0479368E-2,-4.2148E-2,1.4310337E-2,-4.8258E-3],"categories":[],"categories_nodes":[],"categories_segments":[],"categories_sizes":[],"default_left":[1,0,0,0,0,0,1,0,0,0,0,0,0,0,0,0,0,0,0,0,0,0,0,0,0,0,0,0,0,0,0],"id":28,"left_children":[1,3,5,7,9,11,13,15,17,19,21,23,25,27,29,-1,-1,-1,-1,-1,-1,-1,-1,-1,-1,-1,-1,-1,-1,-1,-1],"loss_changes":[8.9066547E2,2.7939444E2,2.6961386E2,1.5996632E2,3.0745972E1,6.7401184E1,1.0942523E2,1.2920445E2,1.1503221E2,1.1886688E1,3.3825989E0,3.1412659E0,4.5608093E1,1.0912735E1,6.2919533E1,0E0,0E0,0E0,0E0,0E0,0E0,0E0,0E0,0E0,0E0,0E0,0E0,0E0,0E0,0E0,0E0],"parents":[2147483647,0,0,1,1,2,2,3,3,4,4,5,5,6,6,7,7,8,8,9,9,10,10,11,11,12,12,13,13,14,14],"right_children":[2,4,6,8,10,12,14,16,18,20,22,24,26,28,30,-1,-1,-1,-1,-1,-1,-1,-1,-1,-1,-1,-1,-1,-1,-1,-1],"split_conditions":[4E0,2.9320676E2,-1.29079795E4,1E0,4.6697067E2,-4.718362E2,-1.3091237E2,1E0,-2.4E2,7E0,3E0,-8.449296E1,1E0,1.74E2,1E0,6.1900206E-2,1.4506789E-2,3.0469252E-2,3.689805E-3,2.9203549E-2,1.8131638E-2,4.2697217E-2,-5.6276806E-3,-4.3665484E-2,5.174696E-3,1.3325691E-2,-2.1767102E-2,-2.0479368E-2,-4.2148E-2,1.4310337E-2,-4.8258E-3],"split_indices":[5,3,6,18,0,1,17,15,5,18,16,3,18,5,18,0,0,0,0,0,0,0,0,0,0,0,0,0,0,0,0],"split_type":[0,0,0,0,0,0,0,0,0,0,0,0,0,0,0,0,0,0,0,0,0,0,0,0,0,0,0,0,0,0,0],"sum_hessian":[2.2792355E4,1.192186E4,1.0870495E4,1.0411656E4,1.5102039E3,2.8986113E3,7.971884E3,6.506992E2,9.760957E3,1.1473446E3,3.6285922E2,3.721251E2,2.5264863E3,8.726627E2,7.099221E3,2.1272992E2,4.3796927E2,4.142292E2,9.346728E3,7.2227783E2,4.250668E2,3.604923E2,2.366909E0,3.6999915E2,2.1259427E0,9.289312E1,2.433593E3,8.0837524E2,6.42875E1,4.5430563E2,6.6449155E3],"tree_param":{"num_deleted":"0","num_feature":"31","num_nodes":"31","size_leaf_vector":"1"}},{"base_weights":[-1.183464E-5,-2.6053852E-1,1.4089775E-1,-3.5711682E-1,2.9143894E-1,6.884234E-2,4.6251184E-1,-1.3742325E-1,-9.045549E-1,-7.163022E-2,1.1086651E0,4.903234E-1,3.995076E-2,6.335397E-1,-2.1533434E-1,-1.2640901E-2,9.866344E-2,-6.562086E-2,-1.2685376E-2,8.402881E-2,-4.0020235E-2,6.082207E-2,7.1210056E-3,2.2158867E-2,5.9782184E-4,1.8897455E-2,5.673855E-2,-7.3389724E-2,1.799683E-2],"categories":[],"categories_nodes":[],"categories_segments":[],"categories_sizes":[],"default_left":[0,0,1,0,0,0,0,0,0,0,0,0,1,0,0,0,0,0,0,0,0,0,0,0,0,0,0,0,0],"id":29,"left_children":[1,3,5,7,9,11,13,15,17,-1,19,21,23,25,27,-1,-1,-1,-1,-1,-1,-1,-1,-1,-1,-1,-1,-1,-1],"loss_changes":[8.3620825E2,4.2676642E2,3.4235464E2,8.179887E2,1.689121E3,1.4698425E2,3.1426562E2,1.1869849E3,5.154182E2,0E0,8.9378656E2,1.9463863E2,1.2763365E2,2.7455597E2,3.9796252E2,0E0,0E0,0E0,0E0,0E0,0E0,0E0,0E0,0E0,0E0,0E0,0E0,0E0,0E0],"parents":[2147483647,0,0,1,1,2,2,3,3,4,4,5,5,6,6,7,7,8,8,10,10,11,11,12,12,13,13,14,14],"right_children":[2,4,6,8,10,12,14,16,18,-1,20,22,24,26,28,-1,-1,-1,-1,-1,-1,-1,-1,-1,-1,-1,-1,-1,-1],"split_conditions":[-7.628546E1,5.9090906E-1,1.2823824E2,1E0,1E0,1E0,5E-1,1E0,2.5E-1,-7.163022E-2,2E0,1E0,-1.55E2,1E0,1E0,-1.2640901E-2,9.866344E-2,-6.562086E-2,-1.2685376E-2,8.402881E-2,-4.0020235E-2,6.082207E-2,7.1210056E-3,2.2158867E-2,5.9782184E-4,1.8897455E-2,5.673855E-2,-7.3389724E-2,1.799683E-2],"split_indices":[1,11,17,9,9,18,11,8,11,0,8,15,5,8,9,0,0,0,0,0,0,0,0,0,0,0,0,0,0],"split_type":[0,0,0,0,0,0,0,0,0,0,0,0,0,0,0,0,0,0,0,0,0,0,0,0,0,0,0,0,0],"sum_hessian":[2.2767994E4,7.9906343E3,1.477736E4,6.8023823E3,1.1882516E3,1.2077795E4,2.6995652E3,4.858889E3,1.9434934E3,3.8087006E2,8.0738153E2,7.694503E2,1.1308345E4,2.1560461E3,5.435191E2,4.6112344E3,2.4765475E2,1.191554E3,7.519394E2,6.217663E2,1.8561528E2,2.4510834E2,5.243419E2,7.290777E2,1.0579267E4,1.4338562E3,7.2218994E2,1.6868353E2,3.7483557E2],"tree_param":{"num_deleted":"0","num_feature":"31","num_nodes":"29","size_leaf_vector":"1"}},{"base_weights":[1.3046932E-3,-2.1753554E-1,1.5305865E-1,-3.1937692E-1,1.6577308E-1,8.744233E-2,4.645357E-1,-8.7672636E-2,-1.1018585E0,7.876245E-2,-4.606896E-1,4.8555824E-1,5.7868816E-2,5.828123E-1,-4.7132903E-1,-1.0809669E-2,9.247384E-2,-6.8323575E-2,2.2042153E-2,-4.589233E-2,3.8981836E-2,6.0509462E-2,9.473761E-3,2.9390026E-2,1.927432E-3,1.9367378E-2,4.6443317E-2,6.298607E-2,-6.923032E-2],"categories":[],"categories_nodes":[],"categories_segments":[],"categories_sizes":[],"default_left":[0,0,0,0,0,0,0,0,0,0,0,0,0,0,0,0,0,0,0,0,0,0,0,0,0,0,0,0,0],"id":30,"left_children":[1,3,5,7,9,11,13,15,17,-1,19,21,23,25,27,-1,-1,-1,-1,-1,-1,-1,-1,-1,-1,-1,-1,-1,-1],"loss_changes":[7.5133466E2,3.6191644E2,2.7279312E2,1.3267728E3,1.7235833E3,1.298068E2,2.5855142E2,1.4095143E3,6.856902E2,0E0,7.7035034E2,1.6232855E2,1.0511672E2,1.37745E2,4.2506622E2,0E0,0E0,0E0,0E0,0E0,0E0,0E0,0E0,0E0,0E0,0E0,0E0,0E0,0E0],"parents":[2147483647,0,0,1,1,2,2,3,3,4,4,5,5,6,6,7,7,8,8,10,10,11,11,12,12,13,13,14,14],"right_children":[2,4,6,8,10,12,14,16,18,-1,20,22,24,26,28,-1,-1,-1,-1,-1,-1,-1,-1,-1,-1,-1,-1,-1,-1],"split_conditions":[-3.5204014E1,5E-1,2.3443564E2,1E0,1E0,1E0,7.1875E-1,1E0,2E0,7.876245E-2,2E0,1E0,-2.18E2,1E0,1E0,-1.0809669E-2,9.247384E-2,-6.8323575E-2,2.2042153E-2,-4.589233E-2,3.8981836E-2,6.0509462E-2,9.473761E-3,2.9390026E-2,1.927432E-3,1.9367378E-2,4.6443317E-2,6.298607E-2,-6.923032E-2],"split_indices":[2,11,2,9,8,18,11,8,8,0,9,15,5,8,8,0,0,0,0,0,0,0,0,0,0,0,0,0,0],"split_type":[0,0,0,0,0,0,0,0,0,0,0,0,0,0,0,0,0,0,0,0,0,0,0,0,0,0,0,0,0],"sum_hessian":[2.2614018E4,9.259017E3,1.3355001E4,7.316254E3,1.9427626E3,1.1036712E4,2.3182888E3,5.6491465E3,1.6671073E3,5.955113E2,1.3472513E3,7.5759283E2,1.0279119E4,2.0599421E3,2.583468E2,5.301885E3,3.472615E2,1.4235653E3,2.4354199E2,9.854257E2,3.6182565E2,2.1518256E2,5.424103E2,3.5621545E2,9.922904E3,1.3233488E3,7.3659326E2,8.8532906E1,1.6981387E2],"tree_param":{"num_deleted":"0","num_feature":"31","num_nodes":"29","size_leaf_vector":"1"}},{"base_weights":[-3.2095944E-3,-1.189628E-1,2.6560563E-1,-4.478962E-1,-5.731388E-2,3.8615698E-1,-1.9647768E-1,-6.1550707E-1,2.5379947E-1,-1.9060808E-1,1.4294587E-2,4.7105184E-1,-2.465458E-1,-7.69598E-2,4.1771722E-1,-1.9622786E-2,-5.4977257E-2,-6.326725E-2,3.0831644E-2,-1.4013779E-2,8.042027E-3,-1.0089894E-3,8.06515E-3,1.3201775E-2,6.5667324E-2,-9.133905E-2,3.331748E-2,-4.9753464E-3,7.1163386E-2],"categories":[],"categories_nodes":[],"categories_segments":[],"categories_sizes":[],"default_left":[0,1,0,0,0,0,0,0,0,0,1,0,0,0,0,0,0,0,0,0,0,0,0,0,0,0,0,0,0],"id":31,"left_children":[1,3,5,7,9,11,13,15,17,19,21,23,25,-1,27,-1,-1,-1,-1,-1,-1,-1,-1,-1,-1,-1,-1,-1,-1],"loss_changes":[7.0059204E2,3.1897906E2,3.779041E2,2.928711E2,1.2660375E2,2.8939594E2,1.1622916E3,2.1427069E2,2.6962927E2,1.463056E2,4.3770054E1,8.2502734E2,9.283258E2,0E0,5.0436417E2,0E0,0E0,0E0,0E0,0E0,0E0,0E0,0E0,0E0,0E0,0E0,0E0,0E0,0E0],"parents":[2147483647,0,0,1,1,2,2,3,3,4,4,5,5,6,6,7,7,8,8,9,9,10,10,11,11,12,12,14,14],"right_children":[2,4,6,8,10,12,14,16,18,20,22,24,26,-1,28,-1,-1,-1,-1,-1,-1,-1,-1,-1,-1,-1,-1,-1,-1],"split_conditions":[8.616295E1,-1.0917682E2,5E-1,4.864865E-1,-9.124032E1,1E0,1E0,1E0,1E0,5E-1,3.68E2,1E0,5.5555556E-2,-7.69598E-2,9.4736844E-1,-1.9622786E-2,-5.4977257E-2,-6.326725E-2,3.0831644E-2,-1.4013779E-2,8.042027E-3,-1.0089894E-3,8.06515E-3,1.3201775E-2,6.5667324E-2,-9.133905E-2,3.331748E-2,-4.9753464E-3,7.1163386E-2],"split_indices":[2,17,11,11,3,9,9,9,9,11,7,10,11,0,11,0,0,0,0,0,0,0,0,0,0,0,0,0,0],"split_type":[0,0,0,0,0,0,0,0,0,0,0,0,0,0,0,0,0,0,0,0,0,0,0,0,0,0,0,0,0],"sum_hessian":[2.250572E4,1.5733818E4,6.7719033E3,2.4782014E3,1.3255616E4,5.3715703E3,1.4003326E3,2.0009906E3,4.7721085E2,4.6300977E3,8.625519E3,4.7373564E3,6.34214E2,4.3719476E2,9.6313794E2,1.3761176E3,6.248731E2,8.955231E1,3.8765854E2,3.689952E3,9.401457E2,6.989963E3,1.6355558E3,3.8081006E3,9.29256E2,2.304338E2,4.0378015E2,6.3890875E2,3.242292E2],"tree_param":{"num_deleted":"0","num_feature":"31","num_nodes":"29","size_leaf_vector":"1"}},{"base_weights":[-2.539121E-3,-1.0052546E-1,2.98264E-1,-3.6194474E-1,-2.7788948E-2,4.208306E-1,-1.8938832E-1,-4.7821668E-1,3.6608854E-1,-1.2418861E-2,-6.7890865E-1,1.8663327E-1,1.1014023E0,-7.309827E-2,3.8600188E-1,-1.4085385E-2,-4.607716E-2,-6.3393615E-2,4.8691776E-2,1.6576812E-2,-1.8286679E-3,-2.3299381E-2,-4.816213E-2,1.4630483E-2,-8.900795E-2,6.434884E-2,-6.832336E-3,4.2385552E-2,-3.9932802E-2],"categories":[],"categories_nodes":[],"categories_segments":[],"categories_sizes":[],"default_left":[0,0,0,0,1,0,0,0,0,0,0,0,0,0,0,0,0,0,0,0,0,0,0,0,0,0,0,0,0],"id":32,"left_children":[1,3,5,7,9,11,13,15,17,19,21,23,25,-1,27,-1,-1,-1,-1,-1,-1,-1,-1,-1,-1,-1,-1,-1,-1],"loss_changes":[6.578945E2,3.2006116E2,3.2821994E2,3.110631E2,1.3176848E2,6.9767847E2,8.119323E2,2.7403912E2,5.0993674E2,1.07031425E2,1.59960785E1,6.836392E2,2.5863147E2,0E0,4.2167886E2,0E0,0E0,0E0,0E0,0E0,0E0,0E0,0E0,0E0,0E0,0E0,0E0,0E0,0E0],"parents":[2147483647,0,0,1,1,2,2,3,3,4,4,5,5,6,6,7,7,8,8,9,9,10,10,11,11,12,12,14,14],"right_children":[2,4,6,8,10,12,14,16,18,20,22,24,26,-1,28,-1,-1,-1,-1,-1,-1,-1,-1,-1,-1,-1,-1,-1,-1],"split_conditions":[1.1666251E2,-1.7812648E2,5E-1,5.588235E-1,2.4E2,1E0,1E0,1E0,1E0,1E0,5.555556E-1,1E0,2E0,-7.309827E-2,2E0,-1.4085385E-2,-4.607716E-2,-6.3393615E-2,4.8691776E-2,1.6576812E-2,-1.8286679E-3,-2.3299381E-2,-4.816213E-2,1.4630483E-2,-8.900795E-2,6.434884E-2,-6.832336E-3,4.2385552E-2,-3.9932802E-2],"split_indices":[2,3,11,11,5,8,9,9,9,18,14,9,9,0,8,0,0,0,0,0,0,0,0,0,0,0,0,0,0],"split_type":[0,0,0,0,0,0,0,0,0,0,0,0,0,0,0,0,0,0,0,0,0,0,0,0,0,0,0,0,0],"sum_hessian":[2.231131E4,1.6831973E4,5.479338E3,3.6592302E3,1.3172742E4,4.3794873E3,1.0998508E3,3.156904E3,5.0232632E2,1.287409E4,2.98652E2,3.263109E3,1.1163783E3,3.401091E2,7.597417E2,2.1931643E3,9.637397E2,1.3466815E2,3.6765814E2,8.4032117E2,1.2033769E4,1.7851707E2,1.2013493E2,3.1003596E3,1.6274928E2,9.707527E2,1.4562566E2,5.477629E2,2.1197882E2],"tree_param":{"num_deleted":"0","num_feature":"31","num_nodes":"29","size_leaf_vector":"1"}},{"base_weights":[-1.0163831E-3,-1.2621215E-1,2.1488035E-1,-5.3942084E-1,-7.881281E-2,3.1821954E-1,-1.7762563E-1,-6.569157E-1,5.791266E-1,3.3572036E-1,-1.0574241E-1,9.1405824E-2,1.0858942E0,-7.594548E-2,4.2116833E-1,-2.477951E-2,-4.7855403E-2,-5.4222103E-2,6.267475E-2,2.6757378E-2,-1.0464835E-2,-4.06173E-3,-2.5535274E-2,1.0358395E-2,-8.571383E-2,6.7052886E-2,-1.7706037E-2,7.1382396E-2,-5.033644E-3],"categories":[],"categories_nodes":[],"categories_segments":[],"categories_sizes":[],"default_left":[0,0,0,0,0,0,0,0,0,0,1,0,0,0,0,0,0,0,0,0,0,0,0,0,0,0,0,0,0],"id":33,"left_children":[1,3,5,7,9,11,13,15,17,19,21,23,25,-1,27,-1,-1,-1,-1,-1,-1,-1,-1,-1,-1,-1,-1,-1,-1],"loss_changes":[6.01496E2,2.756101E2,3.3159338E2,1.9227103E2,1.4128517E2,1.1255103E3,1.3728949E3,6.1079224E1,1.641684E2,8.4520996E1,1.17592896E2,1.0463652E3,5.4426184E2,0E0,6.220878E2,0E0,0E0,0E0,0E0,0E0,0E0,0E0,0E0,0E0,0E0,0E0,0E0,0E0,0E0],"parents":[2147483647,0,0,1,1,2,2,3,3,4,4,5,5,6,6,7,7,8,8,9,9,10,10,11,11,12,12,14,14],"right_children":[2,4,6,8,10,12,14,16,18,20,22,24,26,-1,28,-1,-1,-1,-1,-1,-1,-1,-1,-1,-1,-1,-1,-1,-1],"split_conditions":[5.3745777E1,-2.9316693E2,5E-1,7.1875E-1,1E0,1E0,1E0,1E0,1E0,7.5E-1,1.55E2,1E0,2E0,-7.594548E-2,1E0,-2.477951E-2,-4.7855403E-2,-5.4222103E-2,6.267475E-2,2.6757378E-2,-1.0464835E-2,-4.06173E-3,-2.5535274E-2,1.0358395E-2,-8.571383E-2,6.7052886E-2,-1.7706037E-2,7.1382396E-2,-5.033644E-3],"split_indices":[2,3,11,11,18,8,9,9,9,13,5,9,9,0,8,0,0,0,0,0,0,0,0,0,0,0,0,0,0],"split_type":[0,0,0,0,0,0,0,0,0,0,0,0,0,0,0,0,0,0,0,0,0,0,0,0,0,0,0,0,0],"sum_hessian":[2.2243744E4,1.4080931E4,8.1628125E3,1.4434545E3,1.2637477E4,6.46255E3,1.7002628E3,1.3081919E3,1.352626E2,7.671729E2,1.1870304E4,4.993051E3,1.4694989E3,5.224566E2,1.1778063E3,8.597459E2,4.4844592E2,3.809618E1,9.716642E1,5.6185767E2,2.0531526E2,1.1198816E4,6.714872E2,4.6964443E3,2.9660672E2,1.2486562E3,2.208426E2,3.9926093E2,7.785453E2],"tree_param":{"num_deleted":"0","num_feature":"31","num_nodes":"29","size_leaf_vector":"1"}},{"base_weights":[-1.0473803E-3,-1.0925381E-1,2.3945998E-1,-4.3223658E-1,-5.463109E-2,3.1836015E-1,-3.4414172E-1,-5.82854E-1,2.5464082E-1,-3.0115595E-2,-4.6121633E-1,1.3052262E-1,7.7070105E-1,6.757256E-2,-1.3168241E0,-4.3719616E-2,-2.1596951E-2,6.857965E-2,-1.6736327E-2,1.5965177E-2,-2.669167E-3,-1.56207355E-2,-3.9622214E-2,1.1235858E-2,-8.4501475E-2,6.2410165E-2,1.1141486E-2,-2.5851563E-2,-7.2569646E-2],"categories":[],"categories_nodes":[],"categories_segments":[],"categories_sizes":[],"default_left":[0,0,0,0,1,0,0,0,0,0,0,0,0,0,0,0,0,0,0,0,0,0,0,0,0,0,0,0,0],"id":34,"left_children":[1,3,5,7,9,11,13,15,17,19,21,23,25,-1,27,-1,-1,-1,-1,-1,-1,-1,-1,-1,-1,-1,-1,-1,-1],"loss_changes":[5.7612195E2,2.6921112E2,3.1684845E2,2.2917917E2,1.301206E2,5.137867E2,1.3618588E3,7.771942E1,2.6598602E2,1.0029374E2,3.524533E1,7.363607E2,4.628529E2,0E0,5.243341E1,0E0,0E0,0E0,0E0,0E0,0E0,0E0,0E0,0E0,0E0,0E0,0E0,0E0,0E0],"parents":[2147483647,0,0,1,1,2,2,3,3,4,4,5,5,6,6,7,7,8,8,9,9,10,10,11,11,12,12,14,14],"right_children":[2,4,6,8,10,12,14,16,18,20,22,24,26,-1,28,-1,-1,-1,-1,-1,-1,-1,-1,-1,-1,-1,-1,-1,-1],"split_conditions":[8.66914E1,-2.3432101E2,6.785714E-1,5E-1,1.55E2,1E0,1E0,-2.01E3,1E0,1E0,6E-1,1E0,2.5E-1,6.757256E-2,8.076923E-1,-4.3719616E-2,-2.1596951E-2,6.857965E-2,-1.6736327E-2,1.5965177E-2,-2.669167E-3,-1.56207355E-2,-3.9622214E-2,1.1235858E-2,-8.4501475E-2,6.2410165E-2,1.1141486E-2,-2.5851563E-2,-7.2569646E-2],"split_indices":[1,2,11,11,5,8,8,7,8,18,14,10,11,0,11,0,0,0,0,0,0,0,0,0,0,0,0,0,0],"split_type":[0,0,0,0,0,0,0,0,0,0,0,0,0,0,0,0,0,0,0,0,0,0,0,0,0,0,0,0,0],"sum_hessian":[2.2128197E4,1.5263952E4,6.8642456E3,2.20275E3,1.3061202E4,6.048906E3,8.1533954E2,1.8073419E3,3.9540823E2,1.2323745E4,7.374573E2,4.278779E3,1.7701272E3,2.9647336E2,5.1886615E2,6.080585E2,1.1992834E3,1.3434152E2,2.610667E2,7.6516125E2,1.1558583E4,5.1576965E2,2.2168762E2,4.0725068E3,2.0627188E2,9.4229095E2,8.2783624E2,7.8322105E1,4.4054404E2],"tree_param":{"num_deleted":"0","num_feature":"31","num_nodes":"29","size_leaf_vector":"1"}},{"base_weights":[2.2632726E-3,-1.1156272E-1,2.2324996E-1,-4.993672E-1,-6.927249E-2,3.0742946E-1,-2.6653486E-1,-6.148185E-1,5.736277E-1,3.0498907E-1,-9.301036E-2,1.1640175E-1,8.193892E-1,6.945044E-2,-1.0062261E0,-2.2618407E-2,-4.6340283E-2,-5.3797282E-2,6.1534096E-2,-7.976056E-3,6.6382825E-2,-7.113781E-3,4.2052176E-3,1.1046471E-2,-8.252754E-2,6.420838E-2,1.2814346E-2,-7.796546E-2,3.7582383E-2],"categories":[],"categories_nodes":[],"categories_segments":[],"categories_sizes":[],"default_left":[0,0,0,0,0,0,0,0,0,0,0,0,0,0,0,0,0,0,0,0,0,0,0,0,0,0,0,0,0],"id":35,"left_children":[1,3,5,7,9,11,13,15,17,19,21,23,25,-1,27,-1,-1,-1,-1,-1,-1,-1,-1,-1,-1,-1,-1,-1,-1],"loss_changes":[5.539772E2,2.3815892E2,3.0911847E2,1.7869278E2,1.1661329E2,6.245355E2,1.3547737E3,6.324588E1,1.5972697E2,3.7312152E2,1.0769073E2,8.625206E2,4.525193E2,0E0,7.4842773E2,0E0,0E0,0E0,0E0,0E0,0E0,0E0,0E0,0E0,0E0,0E0,0E0,0E0,0E0],"parents":[2147483647,0,0,1,1,2,2,3,3,4,4,5,5,6,6,7,7,8,8,9,9,10,10,11,11,12,12,14,14],"right_children":[2,4,6,8,10,12,14,16,18,20,22,24,26,-1,28,-1,-1,-1,-1,-1,-1,-1,-1,-1,-1,-1,-1,-1,-1],"split_conditions":[6.940646E1,-2.9316693E2,5.833333E-1,7.037037E-1,1E0,1E0,1E0,1E0,1E0,1E0,5E-1,1E0,1.9354838E-1,6.945044E-2,2E0,-2.2618407E-2,-4.6340283E-2,-5.3797282E-2,6.1534096E-2,-7.976056E-3,6.6382825E-2,-7.113781E-3,4.2052176E-3,1.1046471E-2,-8.252754E-2,6.420838E-2,1.2814346E-2,-7.796546E-2,3.7582383E-2],"split_indices":[3,3,11,11,18,8,8,9,9,16,11,9,11,0,9,0,0,0,0,0,0,0,0,0,0,0,0,0,0],"split_type":[0,0,0,0,0,0,0,0,0,0,0,0,0,0,0,0,0,0,0,0,0,0,0,0,0,0,0,0,0],"sum_hessian":[2.2013004E4,1.4530597E4,7.4824077E3,1.4232142E3,1.3107382E4,6.386776E3,1.0956317E3,1.2869683E3,1.36246E2,7.7797864E2,1.2329403E4,4.655864E3,1.7309119E3,3.3695343E2,7.5867834E2,8.545684E2,4.323998E2,3.7858974E1,9.838703E1,5.3781683E2,2.401618E2,9.647466E3,2.6819382E3,4.4000044E3,2.5585974E2,9.4463806E2,7.8627374E2,5.775761E2,1.8110222E2],"tree_param":{"num_deleted":"0","num_feature":"31","num_nodes":"29","size_leaf_vector":"1"}},{"base_weights":[-2.9147744E-5,1.7150751E-1,-1.332213E-1,2.478441E-1,-1.4895643E-1,-2.0402691E-1,1.0461892E-1,3.3609036E-1,-5.451595E-1,-7.5130746E-2,4.716616E-1,1.3571809E-3,-1.0440378E0,-1.4972467E0,5.843688E-1,8.428882E-3,6.6609986E-2,-8.106812E-2,2.2538612E-2,-2.2220984E-3,7.122307E-2,-7.3759533E-3,8.747023E-2,-6.8833105E-2,-1.4120042E-2,-6.3092396E-2,-7.89323E-2,1.8262475E-3,7.8514695E-2],"categories":[],"categories_nodes":[],"categories_segments":[],"categories_sizes":[],"default_left":[1,0,0,0,0,0,0,0,0,0,0,0,0,0,0,0,0,0,0,0,0,0,0,0,0,0,0,0,0],"id":36,"left_children":[1,3,5,7,9,11,13,15,17,-1,19,21,23,25,27,-1,-1,-1,-1,-1,-1,-1,-1,-1,-1,-1,-1,-1,-1],"loss_changes":[5.0085037E2,2.3458386E2,2.079349E2,5.425514E2,1.5545897E3,1.641077E3,2.1821736E3,1.1614685E3,8.364493E2,0E0,6.2474756E2,1.9917075E3,4.7132446E2,2.2971191E0,1.1794559E3,0E0,0E0,0E0,0E0,0E0,0E0,0E0,0E0,0E0,0E0,0E0,0E0,0E0,0E0],"parents":[2147483647,0,0,1,1,2,2,3,3,4,4,5,5,6,6,7,7,8,8,10,10,11,11,12,12,13,13,14,14],"right_children":[2,4,6,8,10,12,14,16,18,-1,20,22,24,26,28,-1,-1,-1,-1,-1,-1,-1,-1,-1,-1,-1,-1,-1,-1],"split_conditions":[-8E0,4.347826E-1,3.448276E-1,1E0,1E0,1E0,1E0,1E0,5.5555556E-2,-7.5130746E-2,9.285714E-1,1E0,5.5555556E-2,-1.3896886E2,1E0,8.428882E-3,6.6609986E-2,-8.106812E-2,2.2538612E-2,-2.2220984E-3,7.122307E-2,-7.3759533E-3,8.747023E-2,-6.8833105E-2,-1.4120042E-2,-6.3092396E-2,-7.89323E-2,1.8262475E-3,7.8514695E-2],"split_indices":[5,11,11,9,9,9,9,10,11,0,11,10,11,0,11,0,0,0,0,0,0,0,0,0,0,0,0,0,0],"split_type":[0,0,0,0,0,0,0,0,0,0,0,0,0,0,0,0,0,0,0,0,0,0,0,0,0,0,0,0,0],"sum_hessian":[2.1911775E4,9.576334E3,1.2335441E4,7.7352036E3,1.8411305E3,9.506473E3,2.8289685E3,6.9633247E3,7.7187885E2,5.7658026E2,1.2645503E3,7.642694E3,1.8637787E3,6.495003E2,2.1794683E3,5.9659893E3,9.9733575E2,3.6952786E2,4.0235095E2,8.232707E2,4.4127957E2,7.0470386E3,5.9565546E2,1.2943416E3,5.6943713E2,1.8840103E2,4.6109924E2,1.4043866E3,7.750816E2],"tree_param":{"num_deleted":"0","num_feature":"31","num_nodes":"29","size_leaf_vector":"1"}},{"base_weights":[5.885829E-4,1.3084958E-1,-1.6586366E-1,4.955539E-1,7.886874E-2,-2.4314132E-1,1.534299E-1,5.6234163E-1,-2.198451E-1,1.1933877E-1,-1.7342988E-1,-5.2789036E-2,-1.0755955E0,7.620051E-2,-4.7782153E-1,2.4620235E-2,5.094421E-2,-6.131449E-2,1.977404E-2,-4.220438E-3,3.0054186E-2,7.2507866E-2,-6.114712E-2,-8.533282E-3,8.815064E-2,-6.7009866E-2,4.40083E-2,-7.1340516E-2,2.3120616E-3],"categories":[],"categories_nodes":[],"categories_segments":[],"categories_sizes":[],"default_left":[1,0,0,0,0,0,0,0,0,0,0,0,0,0,0,0,0,0,0,0,0,0,0,0,0,0,0,0,0],"id":37,"left_children":[1,3,5,7,9,11,13,15,17,19,21,23,25,-1,27,-1,-1,-1,-1,-1,-1,-1,-1,-1,-1,-1,-1,-1,-1],"loss_changes":[4.711242E2,2.308382E2,2.3556012E2,7.325293E1,1.0909944E2,1.2169326E3,1.6143672E3,4.1762543E1,8.500319E1,9.036204E2,2.526259E3,1.3407888E3,7.4564307E2,0E0,6.362175E2,0E0,0E0,0E0,0E0,0E0,0E0,0E0,0E0,0E0,0E0,0E0,0E0,0E0,0E0],"parents":[2147483647,0,0,1,1,2,2,3,3,4,4,5,5,6,6,7,7,8,8,9,9,10,10,11,11,12,12,14,14],"right_children":[2,4,6,8,10,12,14,16,18,20,22,24,26,-1,28,-1,-1,-1,-1,-1,-1,-1,-1,-1,-1,-1,-1,-1,-1],"split_conditions":[9E0,-2.37827E4,4.2105263E-1,4.090909E-1,6.875E-1,1E0,1E0,1E0,1E0,1E0,1E0,1E0,2E0,7.620051E-2,1E0,2.4620235E-2,5.094421E-2,-6.131449E-2,1.977404E-2,-4.220438E-3,3.0054186E-2,7.2507866E-2,-6.114712E-2,-8.533282E-3,8.815064E-2,-6.7009866E-2,4.40083E-2,-7.1340516E-2,2.3120616E-3],"split_indices":[5,6,11,11,11,9,8,8,9,8,8,8,8,0,9,0,0,0,0,0,0,0,0,0,0,0,0,0,0],"split_type":[0,0,0,0,0,0,0,0,0,0,0,0,0,0,0,0,0,0,0,0,0,0,0,0,0,0,0,0,0],"sum_hessian":[2.1718738E4,1.2184864E4,9.533873E3,1.5144806E3,1.0670384E4,7.677272E3,1.8566014E3,1.3862716E3,1.2820906E2,9.198006E3,1.4723776E3,6.252897E3,1.4243751E3,5.832751E2,1.2733263E3,1.211323E3,1.7494861E2,4.6822613E1,8.138645E1,6.4668535E3,2.7311523E3,5.7729816E2,8.9507947E2,5.8760273E3,3.7686957E2,1.2560627E3,1.6831235E2,4.5001086E2,8.233154E2],"tree_param":{"num_deleted":"0","num_feature":"31","num_nodes":"29","size_leaf_vector":"1"}},{"base_weights":[-1.9082616E-3,-7.988562E-2,2.4696222E-1,-4.7808886E-1,-4.4156607E-2,3.4983277E-1,-1.7399293E-1,-5.748431E-1,5.0149804E-1,-2.1299465E-2,-4.122662E-1,1.5908457E-1,1.0038903E0,6.2502764E-2,-5.493466E-1,-3.9779045E-2,-2.0912074E-2,6.0810547E-2,-2.1510428E-2,2.6988162E-2,-1.6765132E-3,-1.3598044E-2,-3.7051734E-2,1.2343634E-2,-7.633929E-2,5.8668356E-2,2.4126284E-2,-2.2017565E-3,-6.457563E-2],"categories":[],"categories_nodes":[],"categories_segments":[],"categories_sizes":[],"default_left":[0,0,0,0,1,0,0,0,0,0,0,0,0,0,0,0,0,0,0,0,0,0,0,0,0,0,0,0,0],"id":38,"left_children":[1,3,5,7,9,11,13,15,17,19,21,23,25,-1,27,-1,-1,-1,-1,-1,-1,-1,-1,-1,-1,-1,-1,-1,-1],"loss_changes":[4.1827548E2,2.3334764E2,2.2299237E2,1.2945929E2,1.26683395E2,5.148547E2,5.448122E2,4.0789764E1,8.5257965E1,9.7424934E1,3.949846E1,4.763478E2,7.938739E1,0E0,3.0154688E2,0E0,0E0,0E0,0E0,0E0,0E0,0E0,0E0,0E0,0E0,0E0,0E0,0E0,0E0],"parents":[2147483647,0,0,1,1,2,2,3,3,4,4,5,5,6,6,7,7,8,8,9,9,10,10,11,11,12,12,14,14],"right_children":[2,4,6,8,10,12,14,16,18,20,22,24,26,-1,28,-1,-1,-1,-1,-1,-1,-1,-1,-1,-1,-1,-1,-1,-1],"split_conditions":[1.1666251E2,-2.9316693E2,4.864865E-1,7.1875E-1,1.39E2,1E0,1E0,-2.104E3,1E0,-2.4E2,6E-1,6.931472E-1,2.5E-1,6.2502764E-2,7.8571427E-1,-3.9779045E-2,-2.0912074E-2,6.0810547E-2,-2.1510428E-2,2.6988162E-2,-1.6765132E-3,-1.3598044E-2,-3.7051734E-2,1.2343634E-2,-7.633929E-2,5.8668356E-2,2.4126284E-2,-2.2017565E-3,-6.457563E-2],"split_indices":[2,3,11,11,5,8,8,7,8,5,14,12,11,0,11,0,0,0,0,0,0,0,0,0,0,0,0,0,0],"split_type":[0,0,0,0,0,0,0,0,0,0,0,0,0,0,0,0,0,0,0,0,0,0,0,0,0,0,0,0,0],"sum_hessian":[2.1544412E4,1.640737E4,5.1370425E3,1.3456184E3,1.5061751E4,4.1290835E3,1.00795905E3,1.2266313E3,1.1898695E2,1.418643E4,8.753214E2,3.201711E3,9.2737256E2,2.077733E2,8.001857E2,5.003388E2,7.262926E2,6.653129E1,5.2455666E1,2.9788187E2,1.3888548E4,6.201193E2,2.5520209E2,3.0473538E3,1.5435733E2,6.950063E2,2.3236623E2,4.7928848E2,3.2089725E2],"tree_param":{"num_deleted":"0","num_feature":"31","num_nodes":"29","size_leaf_vector":"1"}},{"base_weights":[-1.9095461E-3,-1.8800157E-1,1.05047435E-1,-2.7533814E-1,1.4892699E-1,6.795672E-2,5.1865494E-1,-6.644161E-2,-1.02289E0,-6.776448E-2,6.0829663E-1,1.0829965E-1,-8.837271E-2,6.156693E-1,-4.2030555E-1,-8.970591E-3,8.443278E-2,-6.42839E-2,1.9006308E-2,5.0703794E-2,-2.9235635E-2,-3.3230062E-3,5.0067075E-2,7.389775E-2,-3.0301085E-2,2.2707483E-2,4.0389586E-2,5.0555654E-2,-5.304971E-2],"categories":[],"categories_nodes":[],"categories_segments":[],"categories_sizes":[],"default_left":[0,0,0,0,0,0,0,0,0,0,0,0,0,1,0,0,0,0,0,0,0,0,0,0,0,0,0,0,0],"id":39,"left_children":[1,3,5,7,9,11,13,15,17,-1,19,21,23,25,27,-1,-1,-1,-1,-1,-1,-1,-1,-1,-1,-1,-1,-1,-1],"loss_changes":[4.2718176E2,2.3072684E2,2.0883882E2,9.7132715E2,1.1203844E3,7.896566E1,1.0339099E2,9.668033E2,5.034756E2,0E0,6.038269E2,1.5531239E3,2.0873354E3,2.9622772E1,1.0424373E2,0E0,0E0,0E0,0E0,0E0,0E0,0E0,0E0,0E0,0E0,0E0,0E0,0E0,0E0],"parents":[2147483647,0,0,1,1,2,2,3,3,4,4,5,5,6,6,7,7,8,8,10,10,11,11,12,12,13,13,14,14],"right_children":[2,4,6,8,10,12,14,16,18,-1,20,22,24,26,28,-1,-1,-1,-1,-1,-1,-1,-1,-1,-1,-1,-1,-1,-1],"split_conditions":[-5.397498E1,5E-1,3.0521725E2,1E0,1E0,5E-1,6.785714E-1,1E0,2E0,-6.776448E-2,2E0,1E0,1E0,2.01E3,1E0,-8.970591E-3,8.443278E-2,-6.42839E-2,1.9006308E-2,5.0703794E-2,-2.9235635E-2,-3.3230062E-3,5.0067075E-2,7.389775E-2,-3.0301085E-2,2.2707483E-2,4.0389586E-2,5.0555654E-2,-5.304971E-2],"split_indices":[2,11,2,9,9,11,11,8,8,0,8,8,8,7,8,0,0,0,0,0,0,0,0,0,0,0,0,0,0],"split_type":[0,0,0,0,0,0,0,0,0,0,0,0,0,0,0,0,0,0,0,0,0,0,0,0,0,0,0,0,0],"sum_hessian":[2.14519E4,7.82847E3,1.3623431E4,6.2179116E3,1.6105585E3,1.250784E4,1.1155912E3,4.864226E3,1.3536854E3,3.7444858E2,1.2361099E3,9.943866E3,2.5639736E3,1.01277795E3,1.028132E2,4.574336E3,2.8989005E2,1.1405479E3,2.131376E2,9.230022E2,3.1310773E2,8.320198E3,1.6236676E3,6.345257E2,1.9294479E3,5.5962994E2,4.5314795E2,3.0847403E1,7.19658E1],"tree_param":{"num_deleted":"0","num_feature":"31","num_nodes":"29","size_leaf_vector":"1"}},{"base_weights":[-3.9169702E-4,-2.1406011E-1,8.409619E-2,-3.1245908E-1,1.7019014E-1,4.715347E-2,4.798574E-1,-1.0371877E-1,-1.0204974E0,6.832485E-2,-3.3863539E-1,4.0732896E-1,2.1999698E-2,5.7528037E-1,-5.34408E-1,-1.0469836E-2,8.310421E-2,-6.2011685E-2,8.414059E-3,-3.8697626E-2,3.7112202E-2,5.62718E-2,5.3580264E-3,9.144123E-3,-1.0209924E-3,2.2448078E-2,4.2836163E-2,4.9813356E-2,-5.6827474E-2],"categories":[],"categories_nodes":[],"categories_segments":[],"categories_sizes":[],"default_left":[0,0,0,0,0,0,0,0,0,0,0,0,1,0,0,0,0,0,0,0,0,0,0,0,0,0,0,0,0],"id":40,"left_children":[1,3,5,7,9,11,13,15,17,-1,19,21,23,25,27,-1,-1,-1,-1,-1,-1,-1,-1,-1,-1,-1,-1,-1,-1],"loss_changes":[3.8527496E2,2.289455E2,2.2343362E2,7.112584E2,7.5478723E2,1.2669132E2,1.2783829E2,6.968382E2,2.8745837E2,0E0,4.127594E2,1.9606078E2,8.933915E1,4.043814E1,1.1140576E2,0E0,0E0,0E0,0E0,0E0,0E0,0E0,0E0,0E0,0E0,0E0,0E0,0E0,0E0],"parents":[2147483647,0,0,1,1,2,2,3,3,4,4,5,5,6,6,7,7,8,8,10,10,11,11,12,12,13,13,14,14],"right_children":[2,4,6,8,10,12,14,16,18,-1,20,22,24,26,28,-1,-1,-1,-1,-1,-1,-1,-1,-1,-1,-1,-1,-1,-1],"split_conditions":[-9.286778E1,4.864865E-1,2.9320676E2,1E0,1E0,1E0,7.037037E-1,1E0,2E0,6.832485E-2,2E0,1.3E1,-5.4E1,1E0,1E0,-1.0469836E-2,8.310421E-2,-6.2011685E-2,8.414059E-3,-3.8697626E-2,3.7112202E-2,5.62718E-2,5.3580264E-3,9.144123E-3,-1.0209924E-3,2.2448078E-2,4.2836163E-2,4.9813356E-2,-5.6827474E-2],"split_indices":[2,11,3,9,8,18,11,8,8,0,9,22,5,8,8,0,0,0,0,0,0,0,0,0,0,0,0,0,0],"split_type":[0,0,0,0,0,0,0,0,0,0,0,0,0,0,0,0,0,0,0,0,0,0,0,0,0,0,0,0,0],"sum_hessian":[2.1331336E4,6.042776E3,1.5288561E4,4.81177E3,1.2310056E3,1.3988627E4,1.2999338E3,3.72072E3,1.0910502E3,3.6488586E2,8.661197E2,9.0794E2,1.3080687E4,1.1902196E3,1.0971428E2,3.5148318E3,2.0588832E2,9.207286E2,1.703216E2,6.185251E2,2.4759464E2,2.6349313E2,6.4444684E2,2.7263564E3,1.035433E4,8.307078E2,3.5951178E2,3.0003939E1,7.971034E1],"tree_param":{"num_deleted":"0","num_feature":"31","num_nodes":"29","size_leaf_vector":"1"}},{"base_weights":[3.412744E-3,-5.2216E-2,2.9880977E-1,-4.4089532E-1,-2.1735348E-2,4.066098E-1,-1.936988E-1,-5.28763E-1,4.7986245E-1,3.3912757E-1,-4.4753265E-2,2.3844002E-1,9.967748E-1,5.7821464E-2,-4.943803E-1,-3.71182E-2,-1.89107E-2,5.8173995E-2,-1.8463416E-2,6.4059876E-2,-2.0837965E-3,-9.213131E-3,1.9680827E-3,1.5351236E-2,-7.556185E-2,5.5923462E-2,1.8648764E-2,-4.7231736E-4,-6.1867137E-2],"categories":[],"categories_nodes":[],"categories_segments":[],"categories_sizes":[],"default_left":[0,0,0,0,0,0,0,0,0,0,1,0,0,0,0,0,0,0,0,0,0,0,0,0,0,0,0,0,0],"id":41,"left_children":[1,3,5,7,9,11,13,15,17,19,21,23,25,-1,27,-1,-1,-1,-1,-1,-1,-1,-1,-1,-1,-1,-1,-1,-1],"loss_changes":[3.4930975E2,2.1181853E2,1.79271E2,1.0646825E2,1.3786417E2,2.731682E2,2.4968167E2,3.6733215E1,6.944321E1,3.5740982E2,1.8313426E2,2.6128183E2,4.419348E1,0E0,1.8030478E2,0E0,0E0,0E0,0E0,0E0,0E0,0E0,0E0,0E0,0E0,0E0,0E0,0E0,0E0],"parents":[2147483647,0,0,1,1,2,2,3,3,4,4,5,5,6,6,7,7,8,8,9,9,10,10,11,11,12,12,14,14],"right_children":[2,4,6,8,10,12,14,16,18,20,22,24,26,-1,28,-1,-1,-1,-1,-1,-1,-1,-1,-1,-1,-1,-1,-1,-1],"split_conditions":[1.7814821E2,-2.9316693E2,5E-1,7.1875E-1,1E0,1E0,1E0,-2.104E3,1E0,1E0,-6.42E2,1E0,3.2E-1,5.7821464E-2,7.8571427E-1,-3.71182E-2,-1.89107E-2,5.8173995E-2,-1.8463416E-2,6.4059876E-2,-2.0837965E-3,-9.213131E-3,1.9680827E-3,1.5351236E-2,-7.556185E-2,5.5923462E-2,1.8648764E-2,-4.7231736E-4,-6.1867137E-2],"split_indices":[3,3,11,11,18,8,8,7,8,15,7,10,11,0,11,0,0,0,0,0,0,0,0,0,0,0,0,0,0],"split_type":[0,0,0,0,0,0,0,0,0,0,0,0,0,0,0,0,0,0,0,0,0,0,0,0,0,0,0,0,0],"sum_hessian":[2.1245918E4,1.7882154E4,3.3637642E3,1.2952278E3,1.6586926E4,2.7606003E3,6.031638E2,1.1844348E3,1.1079302E2,9.9019244E2,1.5596733E4,2.1539993E3,6.066009E2,1.07208885E2,4.959549E2,4.8127524E2,7.031596E2,6.0418285E1,5.0374733E1,2.8171005E2,7.084824E2,5.8648247E3,9.731908E3,2.0767727E3,7.722659E1,5.041275E2,1.0247338E2,3.0323236E2,1.9272255E2],"tree_param":{"num_deleted":"0","num_feature":"31","num_nodes":"29","size_leaf_vector":"1"}},{"base_weights":[-1.6515661E-4,-1.7116056E-1,9.102314E-2,-2.5884956E-1,1.4777195E-1,2.872194E-1,2.481282E-2,-3.5240287E-1,3.895586E-1,6.9642656E-2,-3.5481554E-1,5.1090217E-1,1.8979499E-1,1.12218246E-1,-8.923969E-2,-8.746529E-3,-6.2256135E-2,8.012273E-2,-2.0558925E-2,4.263384E-3,-6.667277E-2,2.8218923E-2,-1.0143661E-2,3.2334063E-2,7.790784E-3,1.4170216E-3,1.4233834E-2,-1.6326016E-2,9.969128E-4],"categories":[],"categories_nodes":[],"categories_segments":[],"categories_sizes":[],"default_left":[1,0,1,0,0,1,0,0,0,0,0,0,0,0,1,0,0,0,0,0,0,0,0,0,0,0,0,0,0],"id":42,"left_children":[1,3,5,7,9,11,13,15,17,-1,19,21,23,25,27,-1,-1,-1,-1,-1,-1,-1,-1,-1,-1,-1,-1,-1,-1],"loss_changes":[3.2958652E2,2.0580809E2,1.7900145E2,3.505976E2,9.965124E2,7.5223785E1,1.0285591E2,7.9787695E2,7.1198175E2,0E0,4.8974066E2,4.0754425E1,3.714981E1,8.442094E1,1.16031204E2,0E0,0E0,0E0,0E0,0E0,0E0,0E0,0E0,0E0,0E0,0E0,0E0,0E0,0E0],"parents":[2147483647,0,0,1,1,2,2,3,3,4,4,5,5,6,6,7,7,8,8,10,10,11,11,12,12,13,13,14,14],"right_children":[2,4,6,8,10,12,14,16,18,-1,20,22,24,26,28,-1,-1,-1,-1,-1,-1,-1,-1,-1,-1,-1,-1,-1,-1],"split_conditions":[-2.1250603E1,5E-1,-5.5E1,1E0,1E0,-3.082892E4,7E0,1E0,5.5555556E-2,6.9642656E-2,1E0,4.090909E-1,1E0,1.762E3,-7.33E2,-8.746529E-3,-6.2256135E-2,8.012273E-2,-2.0558925E-2,4.263384E-3,-6.667277E-2,2.8218923E-2,-1.0143661E-2,3.2334063E-2,7.790784E-3,1.4170216E-3,1.4233834E-2,-1.6326016E-2,9.969128E-4],"split_indices":[17,11,5,8,8,6,18,10,11,0,11,11,18,7,7,0,0,0,0,0,0,0,0,0,0,0,0,0,0],"split_type":[0,0,0,0,0,0,0,0,0,0,0,0,0,0,0,0,0,0,0,0,0,0,0,0,0,0,0,0,0],"sum_hessian":[2.1126615E4,7.3467583E3,1.3779857E4,5.763395E3,1.5833632E3,3.4723357E3,1.0307521E4,5.038823E3,7.24572E2,4.528474E2,1.1305157E3,1.0467621E3,2.4255737E3,5.835997E3,4.471525E3,4.2083057E3,8.305174E2,2.8619073E2,4.383813E2,7.829115E2,3.4760422E2,9.749084E2,7.185375E1,1.6146133E2,2.2641123E3,3.930661E3,1.9053359E3,1.4062438E3,3.0652812E3],"tree_param":{"num_deleted":"0","num_feature":"31","num_nodes":"29","size_leaf_vector":"1"}},{"base_weights":[1.2312719E-3,-6.694985E-2,2.2240198E-1,-3.4102538E-1,-2.3788491E-2,1.815863E-1,6.566166E-1,-2.9372844E-1,-8.224941E-1,5.057364E-1,-3.6423124E-2,9.873505E-2,2.8620216E-1,3.6703712E-1,7.4336004E-1,-3.4945324E-2,-1.1610708E-2,-4.2135205E-2,-8.802575E-4,3.7839632E-2,1.8618977E-2,-6.023373E-3,1.4559518E-3,2.9457612E-2,4.092126E-3,1.1730223E-2,2.1530421E-2,-1.6055973E-2,2.0163007E-2,3.7631836E-2,-6.6294274E-3],"categories":[],"categories_nodes":[],"categories_segments":[],"categories_sizes":[],"default_left":[0,1,0,0,1,0,0,0,1,0,1,1,0,0,0,0,0,0,0,0,0,0,0,0,0,0,0,0,0,0,0],"id":43,"left_children":[1,3,5,7,9,11,13,15,17,19,21,23,25,27,29,-1,-1,-1,-1,-1,-1,-1,-1,-1,-1,-1,-1,-1,-1,-1,-1],"loss_changes":[3.170738E2,1.9003366E2,8.713052E1,4.8456055E1,9.297493E1,3.9136917E1,9.165085E0,4.890088E1,2.9719696E0,9.320541E0,7.478323E1,2.073018E1,1.43420105E1,3.3423834E0,3.1678467E0,0E0,0E0,0E0,0E0,0E0,0E0,0E0,0E0,0E0,0E0,0E0,0E0,0E0,0E0,0E0,0E0],"parents":[2147483647,0,0,1,1,2,2,3,3,4,4,5,5,6,6,7,7,8,8,9,9,10,10,11,11,12,12,13,13,14,14],"right_children":[2,4,6,8,10,12,14,16,18,20,22,24,26,28,30,-1,-1,-1,-1,-1,-1,-1,-1,-1,-1,-1,-1,-1,-1,-1,-1],"split_conditions":[1.1666251E2,-1.0917682E2,4.0554745E2,2.18E2,-2.4E2,1.174E3,2.01E3,-4.3031738E2,-2.35E2,-4.67E2,-5.4E2,-2.4E2,2.9320676E2,1.1643629E2,3E0,-3.4945324E-2,-1.1610708E-2,-4.2135205E-2,-8.802575E-4,3.7839632E-2,1.8618977E-2,-6.023373E-3,1.4559518E-3,2.9457612E-2,4.092126E-3,1.1730223E-2,2.1530421E-2,-1.6055973E-2,2.0163007E-2,3.7631836E-2,-6.6294274E-3],"split_indices":[2,17,2,5,5,7,7,0,7,5,7,5,3,17,16,0,0,0,0,0,0,0,0,0,0,0,0,0,0,0,0],"split_type":[0,0,0,0,0,0,0,0,0,0,0,0,0,0,0,0,0,0,0,0,0,0,0,0,0,0,0,0,0,0,0],"sum_hessian":[2.1015607E4,1.6065936E4,4.949672E3,2.1808257E3,1.388511E4,4.531077E3,4.1859488E2,1.9932748E3,1.875508E2,3.1885037E2,1.356626E4,2.5345208E3,1.9965563E3,1.0278206E2,3.158128E2,2.5568858E2,1.7375862E3,1.8260657E2,4.944231E0,1.0224341E2,2.1660698E2,5.942966E3,7.623294E3,7.8557846E1,2.455963E3,1.481145E3,5.154113E2,3.0351412E0,9.974692E1,3.1331274E2,2.5000708E0],"tree_param":{"num_deleted":"0","num_feature":"31","num_nodes":"31","size_leaf_vector":"1"}},{"base_weights":[2.7671955E-3,-2.1050982E-1,6.926395E-2,-3.4925482E-1,-8.102895E-2,4.188528E-2,4.372075E-1,3.278331E-1,-3.9872354E-1,-6.0340637E-1,-5.7575587E-2,9.206155E-2,-1.0380006E-1,3.4893155E-1,7.3125196E-1,-1.7115442E-2,8.52822E-2,-3.568863E-2,-1.7248532E-2,-3.3572495E-2,-1.8032506E-3,3.7576508E-2,-3.2620877E-3,1.7358487E-2,3.4049337E-3,-2.5488937E-2,-2.1189046E-3,9.382751E-3,2.0853579E-2,3.7011612E-2,-7.531058E-3],"categories":[],"categories_nodes":[],"categories_segments":[],"categories_sizes":[],